/* AUTO-GENERATED - DO NOT EDIT */
#ifndef MODEL_WEIGHTS_H
#define MODEL_WEIGHTS_H

#include <stdint.h>

/* Store large weight arrays in flash (PROGMEM) */
#ifdef __AVR__
  #include <avr/pgmspace.h>
#else
  #ifndef PROGMEM
    #define PROGMEM
  #endif
#endif

/* ---- Input quantization ---- */
#define INPUT_SCALE  1.6141029075e-02f
#define INPUT_ZP     123

/* ---- Conv layer 0: Conv_219 ---- */
/* in=3x32x32 out=16x32x32 k=3x3 s=1 p=1 g=1 standard */
static const int8_t conv0_weight[432] PROGMEM = {
    82, 58, 101, -57, -108, -15, 7, -90, -84, 47, 127, 11, -70, -17, -1, 4,
    -39, -18, -9, 90, 36, -65, 70, -6, -28, 31, -6, 3, 59, -37, -127, -51,
    -59, 2, 16, -3, 30, 56, 23, -52, 94, 34, -32, 27, -3, 8, 7, -51,
    -43, -12, 28, 11, -27, 14, -49, -16, 43, -53, -38, 24, 21, -2, 16, -40,
    -42, 52, 49, -7, 26, -3, -19, 8, -31, 20, -50, 127, 66, -57, -1, 38,
    -31, -1, 12, -14, -20, -48, 79, -26, -94, 56, 24, 17, -33, -51, -56, 31,
    -30, -94, 127, 29, 60, -17, -46, -19, 47, 11, -99, 67, -84, -80, 45, -27,
    -19, 11, 23, 23, 127, 22, -19, 0, -20, 22, -54, -31, -3, -5, 97, 83,
    -4, 88, -11, -90, -4, -11, -122, -58, -117, -11, -76, 70, 22, 12, 76, 98,
    62, 20, -51, 6, 121, 9, -62, 104, 74, 58, -36, 8, -82, 47, -39, -127,
    -35, -85, 82, 126, -39, -12, -17, -112, 68, -127, 23, -60, 32, 50, -111, -104,
    91, -58, -69, 70, 84, 27, 6, -19, -29, -82, -10, -33, 13, 27, 52, 75,
    16, 8, 62, -80, -73, -16, 75, -80, -54, -51, -80, -22, 37, 32, 74, 32,
    -24, -50, 22, -86, -31, 0, 127, 19, 54, 13, 12, -19, -60, 32, -7, -25,
    7, -22, 29, -1, -25, -127, 33, 37, -32, 63, 50, 21, -11, -52, -115, 30,
    2, -8, 4, 63, -3, 36, -11, 122, -66, -10, 15, -47, -65, -127, -28, -7,
    84, -91, -33, -16, 47, 6, 6, -12, -44, 47, 35, 22, 126, -12, -80, -127,
    -73, 15, 13, 29, 81, 42, 104, 34, 25, 8, -43, -24, -78, 62, 0, 35,
    -44, -3, 42, 3, -16, -88, 17, -4, 80, -24, -24, 32, 29, -106, -81, -8,
    127, 23, 2, 3, -3, 25, -105, -20, -26, 98, 37, 26, 31, -44, 19, -28,
    -44, -10, 102, -18, 11, -34, -11, -10, -88, -18, 12, 18, 127, 91, -60, 14,
    37, -67, 61, -74, 21, -26, -17, -50, -34, -29, -51, 78, -57, 49, 45, -24,
    -19, 3, 25, -127, 19, -7, -12, -3, 42, 65, 12, 56, -40, 97, 2, -28,
    14, -83, -2, -31, 63, -110, -42, 58, 5, 16, -77, -13, -67, -36, 18, 47,
    -70, 103, 18, -127, -10, -2, -13, 18, -3, -44, 96, 22, 22, 18, -38, 35,
    29, -66, -19, 9, -29, 12, -89, 84, -29, 86, -122, 34, -16, 30, 31, 52,
    -41, -8, 127, -95, -20, 16, -48, -10, -47, 14, 9, 124, -88, -11, 30, -20,
};
static const int32_t conv0_bias[16] = {
    4198, 443, 4732, -1274, -1336, 9481, 11614, 3938,
    -1105, 8775, 1456, 11744, -9, 12671, 2503, 7134,
};
static const float conv0_w_scale[16] = {
    2.7839152608e-03f, 6.1796791852e-03f, 7.4971043505e-03f, 3.5244419705e-03f, 6.1273584142e-03f, 4.4167386368e-03f, 1.8472404918e-03f, 9.6918651834e-03f,
    3.5744949710e-03f, 4.3052313849e-03f, 3.9087585174e-03f, 5.1762289368e-03f, 5.8479416184e-03f, 4.5138029382e-03f, 3.7310312036e-03f, 9.3094091862e-03f,
};
static const float conv0_in_scale = 1.6141029075e-02f;
static const uint8_t conv0_in_zp = 123;
static const float conv0_out_scale = 2.3529412225e-02f;
static const uint8_t conv0_out_zp = 0;

/* ---- Conv layer 1: Conv_221 ---- */
/* in=16x32x32 out=16x32x32 k=3x3 s=1 p=1 g=16 depthwise */
static const int8_t conv1_weight[144] PROGMEM = {
    -111, -15, -127, -25, 80, -21, -20, -36, -36, -32, -75, 54, 125, -53, -94, -38,
    127, 90, -64, -40, -4, -60, -21, 127, -42, -42, 99, 53, 1, 1, 79, 110,
    -10, -127, -70, -17, -127, -74, -53, -69, 7, -16, -90, 107, 67, -6, -19, 65,
    -42, 25, 127, 59, -58, -91, -108, 66, 31, -121, 19, 127, -114, 14, 97, 47,
    37, -127, 45, -30, -3, -126, 44, 83, -5, 79, 54, -8, 32, 50, 22, -127,
    -41, 20, -82, -56, 44, 127, 99, -49, -15, 8, -121, 26, -127, 68, -116, 50,
    40, 22, 60, 86, 124, -23, -21, -127, -16, 19, -13, 13, 127, 33, -71, 26,
    -98, -97, 24, -41, 36, -31, 52, -18, -56, 120, -127, -7, 29, -9, -42, -59,
    11, -127, 21, -16, -94, 0, 88, -5, 15, 0, -55, 19, 127, -77, 80, 10,
};
static const int32_t conv1_bias[16] = {
    6334, -2242, 3953, 567, 2527, 994, -294, 2315,
    -1146, -2162, 2198, 446, 1735, 3313, 4130, -1783,
};
static const float conv1_w_scale[16] = {
    5.3610401228e-03f, 8.1687392667e-03f, 7.6981252059e-03f, 1.2268756516e-02f, 7.5034513138e-03f, 7.0254607126e-03f, 1.1079688556e-02f, 7.7521540225e-03f,
    1.6666367650e-02f, 1.1410306208e-02f, 6.1938366853e-03f, 8.1329112872e-03f, 5.4842992686e-03f, 8.7790917605e-03f, 5.3598629311e-03f, 5.7299975306e-03f,
};
static const float conv1_in_scale = 2.3529412225e-02f;
static const uint8_t conv1_in_zp = 0;
static const float conv1_out_scale = 2.3529412225e-02f;
static const uint8_t conv1_out_zp = 0;

/* ---- Conv layer 2: Conv_223 ---- */
/* in=16x32x32 out=16x32x32 k=1x1 s=1 p=0 g=1 standard */
static const int8_t conv2_weight[256] PROGMEM = {
    29, -36, -16, -15, 15, -15, -17, -23, -36, -17, -5, -127, 25, 27, -17, 10,
    67, -126, 10, 9, 45, -119, 3, -127, 86, 35, -12, 39, -16, 70, 62, -1,
    20, -18, 127, -35, 38, -38, 96, 34, -74, 25, -36, 1, 47, 86, -32, 10,
    -53, -21, -14, 51, 24, 39, -9, -61, 31, 11, -12, -8, -42, 69, 9, -127,
    -68, -37, 94, 116, 84, 10, -41, 51, 43, -55, -39, -26, 10, -127, 17, 19,
    -64, -19, -112, 103, -87, -61, -112, -63, 13, 127, -14, 12, -30, 42, -105, 31,
    40, 19, -34, 1, 28, -68, -23, 1, -44, -29, 127, 82, 2, 75, 33, 32,
    -23, -46, 22, 8, 19, -83, 74, 55, -4, 86, -127, -41, 13, -71, -35, 9,
    54, -48, 19, 8, 5, -32, 127, 65, -52, -69, 23, -31, 15, -37, 43, -70,
    -32, -12, 8, -2, -57, -37, -20, 58, 43, -95, -99, -24, 26, -127, 13, 98,
    -35, 29, -14, 79, 2, -2, 28, 36, 127, 22, 50, 104, 35, -96, -33, -22,
    26, -33, 85, -21, 7, -38, 78, -8, 13, -46, 1, -127, -37, -13, 33, 0,
    -21, 2, 19, -37, 67, -40, -51, -22, -127, -61, 16, 43, 116, 50, 71, 65,
    13, -42, 16, 69, 11, -9, -18, 127, 35, -68, 16, -111, -9, 10, -91, 75,
    10, -48, 72, -94, -37, -56, -7, -56, 64, -5, -1, 12, 127, 51, 45, 29,
    7, 8, 30, -9, 26, -1, 19, -13, 6, 17, -58, 11, 4, -40, 30, -127,
};
static const int32_t conv2_bias[16] = {
    5703, -2788, -3362, 3891, 5688, 10454, -5249, 3063,
    3981, 3094, -1509, 4817, 3109, -7892, -1702, 5298,
};
static const float conv2_w_scale[16] = {
    1.0025864467e-02f, 6.2968470156e-03f, 5.4604555480e-03f, 6.9127329625e-03f, 5.6054689921e-03f, 3.2790566329e-03f, 8.6204372346e-03f, 4.6250340529e-03f,
    6.4635919407e-03f, 7.0055057295e-03f, 4.5364159159e-03f, 4.3369112536e-03f, 4.4170604087e-03f, 3.2185809687e-03f, 8.5692722350e-03f, 6.9327950478e-03f,
};
static const float conv2_in_scale = 2.3529412225e-02f;
static const uint8_t conv2_in_zp = 0;
static const float conv2_out_scale = 6.0680627823e-02f;
static const uint8_t conv2_out_zp = 156;

/* ---- Conv layer 3: Conv_225 ---- */
/* in=16x32x32 out=32x32x32 k=1x1 s=1 p=0 g=1 standard */
static const int8_t conv3_weight[512] PROGMEM = {
    74, 33, -83, 26, -11, -34, -20, -16, -24, -9, -1, 127, 1, 84, 13, -42,
    -17, 44, 25, -46, 17, 27, -54, 113, 36, -120, -127, 7, 60, -28, 51, -93,
    127, 7, -47, -64, 95, -127, 94, 81, -18, -1, 55, -66, -33, -80, -43, -43,
    -8, 127, -64, -98, -75, 34, -16, -98, 4, 8, 33, 2, -49, 100, 70, -34,
    4, -15, -35, -9, 40, 38, 4, -7, 16, 38, -31, -38, -60, -46, 1, 127,
    36, 1, 127, 17, 29, -44, -23, 37, -34, 36, -13, 14, -3, 51, 2, 36,
    74, -8, -127, -64, 34, 60, -47, -18, -31, 101, 40, 33, -20, -45, 29, 81,
    52, -14, 102, -51, 112, -99, 111, 84, 127, -53, -95, -9, 13, 18, -42, -6,
    3, 18, 3, -34, 40, 33, 34, 15, -75, 47, -66, -3, 58, 9, 23, -127,
    -53, -23, 59, 71, -24, -22, 3, 64, 23, -66, -18, -67, 72, 11, -32, -127,
    11, 11, -2, 38, -31, -74, -117, -69, 93, -103, -2, -69, -127, -3, -14, -126,
    -55, 34, 3, -60, -25, 105, 38, -6, -26, 35, 110, 95, 81, -127, -89, -5,
    57, -12, 18, -38, 60, -3, -71, -22, -7, 91, -18, -29, 65, 14, 27, -127,
    26, -6, 26, 64, -65, -84, 3, 11, 7, -42, 15, -75, 12, 71, 23, -127,
    -62, 23, -10, 35, 69, 21, 77, -3, -9, -24, 59, -16, -17, 4, -54, -127,
    39, -81, -27, 48, -27, 40, -97, 26, 58, 84, -78, 127, -32, 54, 8, -60,
    -97, -120, 91, 98, -60, -110, 7, -60, 97, 104, -127, 79, 116, 96, -64, 70,
    127, -37, -9, 10, -31, 63, 6, 87, 91, 69, -70, 103, -83, 104, -57, -36,
    -13, 51, 94, 11, 25, 40, 49, -127, -76, -34, -80, 51, 36, 99, -67, 39,
    -78, 23, -27, -9, -15, -110, -47, -68, -5, 53, -59, 127, -37, -21, 119, 34,
    -45, 8, 23, 65, -44, 53, 5, 19, 94, -62, -78, 3, 76, 107, 79, -127,
    -34, -17, 41, -92, 31, 67, 41, 127, 3, -112, -17, -56, -70, 10, 70, -5,
    111, -12, -43, -127, 54, 18, 16, -27, -24, 75, 30, -14, -93, -41, 22, 36,
    -21, -75, 39, -108, 57, 3, -39, -75, 89, 79, 6, -127, -25, 14, 19, 37,
    57, 127, -10, -20, 31, -58, -116, 63, 9, -26, 5, -66, 2, 37, 24, -3,
    -127, -20, 14, -12, -65, 119, -46, 10, -100, 46, -46, -16, -15, 5, -25, 93,
    -127, -21, 49, -26, -90, 60, -60, -10, -89, 24, -28, -52, 10, 0, -14, 75,
    -95, 0, -17, 127, 11, -22, 42, -8, 60, -67, 39, -9, -62, -19, 38, 48,
    -102, 16, -29, -28, -13, 18, 7, 103, 14, -40, -107, -55, 2, 127, -81, 2,
    69, -49, -6, 20, -94, -13, 15, -127, 35, -12, -98, -115, 9, -65, 6, -121,
    -67, -110, -5, -78, -79, 127, -69, 0, -54, 43, -9, -50, 11, 42, -18, 38,
    -44, -52, 35, -21, 23, -43, -6, 1, -69, -43, -34, -127, 67, 14, 1, 62,
};
static const int32_t conv3_bias[32] = {
    -4482, 3239, 14023, 10697, 6438, -10898, 13529, -6853,
    3619, 26178, 23197, 1755, 4628, 29977, 8542, -896,
    -2933, -920, -241, 1665, 787, -302, 7459, -1057,
    837, 18627, 20463, 197, 10290, 29476, 11022, 29350,
};
static const float conv3_w_scale[32] = {
    6.3596526161e-03f, 5.6741144508e-03f, 2.1854015067e-03f, 3.9852522314e-03f, 2.2613701876e-03f, 5.7019479573e-03f, 1.1756231543e-03f, 3.0706634279e-03f,
    5.8226296678e-03f, 1.4095798833e-03f, 2.6077774819e-03f, 2.2235221695e-03f, 4.0200082585e-03f, 1.3717610855e-03f, 4.0150713176e-03f, 3.0961406883e-03f,
    2.2408955265e-03f, 1.5258021886e-03f, 3.6526520271e-03f, 4.0215649642e-03f, 2.8096854221e-03f, 5.3420830518e-03f, 2.1916714031e-03f, 4.4110389426e-03f,
    6.6706901416e-03f, 1.5014824457e-03f, 1.8278179923e-03f, 3.9546918124e-03f, 4.2326012626e-03f, 2.5997059420e-03f, 2.8740982525e-03f, 1.2808304746e-03f,
};
static const float conv3_in_scale = 2.3529412225e-02f;
static const uint8_t conv3_in_zp = 0;
static const float conv3_out_scale = 2.3529412225e-02f;
static const uint8_t conv3_out_zp = 0;

/* ---- Conv layer 4: Conv_227 ---- */
/* in=32x32x32 out=32x16x16 k=3x3 s=2 p=1 g=32 depthwise */
static const int8_t conv4_weight[288] PROGMEM = {
    -41, -56, -17, -30, -127, -43, -14, -62, -30, 127, 97, 58, 36, 114, 93, 25,
    37, -1, 82, 127, 102, -27, 10, -16, -67, -121, -24, 91, 127, 86, 108, 99,
    51, 28, 34, -4, 127, -86, -4, -102, 33, 76, -5, 59, -63, 93, 73, -3,
    61, 92, 127, 20, 115, 71, -45, 36, -4, -71, 127, -54, -78, 125, -47, -127,
    7, -34, 22, 97, 37, -76, 9, -36, -56, -51, -11, -58, -127, -125, -26, -53,
    -39, -18, 69, -53, -59, 127, -84, -7, 59, -60, 11, 90, 54, -92, 115, 127,
    -38, -10, 96, 34, 127, 119, 68, 25, 22, -48, -38, 0, 79, 89, 23, 107,
    127, 55, 29, 73, 93, 43, -127, 85, 100, -2, -97, -104, 113, -16, 91, 3,
    -35, 127, 71, -18, 78, 53, 4, -6, -45, -22, 18, 81, 62, -83, -127, -127,
    -78, -73, 0, -127, -127, -55, -78, -88, -112, 22, 84, 40, -95, -126, -127, 18,
    77, 76, -52, -99, -73, -97, -127, -82, -30, -76, -49, 58, 60, 44, 122, 127,
    33, 87, 71, 2, 38, 51, 23, -63, -54, -13, -87, -127, -87, 54, 75, -15,
    117, 127, 16, 55, 21, -4, 50, 28, -96, 127, -10, -119, 86, -91, -5, -7,
    60, 33, 84, 127, 71, 78, 72, 49, 52, 83, -6, 99, 127, 37, 51, 89,
    57, 46, -36, -9, 84, 45, -98, -127, 26, 104, 65, 46, -101, -127, 28, 103,
    5, -9, -3, 127, 88, 87, 76, 88, 123, -13, 5, 14, -6, -4, 49, -90,
    -106, -52, -67, -127, -122, -38, 8, -5, -84, -82, -75, -15, -127, -117, 14, -10,
    -41, 0, -85, -75, -109, -127, -45, 48, 127, 126, -59, -38, -55, -23, 1, -64,
};
static const int32_t conv4_bias[32] = {
    9573, -6039, -965, -4787, -1210, -5367, 154, -1864,
    10150, 538, -25, -5253, -10955, -63, 1128, 5867,
    17637, 658, 22351, 569, 6826, -370, 748, 68,
    -167, -1119, -367, -3971, 12203, 14144, 12201, -1861,
};
static const float conv4_w_scale[32] = {
    6.2582651153e-03f, 3.6362437531e-03f, 7.7313547954e-03f, 3.3526853658e-03f, 1.8000775948e-02f, 3.2246992923e-03f, 1.3489700854e-02f, 6.1413599178e-03f,
    4.4494988397e-03f, 1.1030440219e-02f, 1.0043807328e-02f, 6.7404774018e-03f, 3.9216740988e-03f, 1.7948679626e-02f, 4.9199569039e-03f, 6.3085150905e-03f,
    3.7278665695e-03f, 7.4051381089e-03f, 4.5701269992e-03f, 3.6948674824e-03f, 7.5541236438e-03f, 4.1793086566e-03f, 8.2171438262e-03f, 7.4969213456e-03f,
    3.6568243522e-03f, 1.8696954474e-02f, 1.8546836451e-02f, 4.2060143314e-03f, 5.3797210567e-03f, 5.5760783143e-03f, 5.7722735219e-03f, 1.4418318868e-02f,
};
static const float conv4_in_scale = 2.3529412225e-02f;
static const uint8_t conv4_in_zp = 0;
static const float conv4_out_scale = 2.3529412225e-02f;
static const uint8_t conv4_out_zp = 0;

/* ---- Conv layer 5: Conv_229 ---- */
/* in=32x16x16 out=24x16x16 k=1x1 s=1 p=0 g=1 standard */
static const int8_t conv5_weight[768] PROGMEM = {
    -17, -10, 1, -71, 9, -35, 29, 67, -42, 75, -62, -47, 104, 15, 127, -6,
    18, 47, -35, 63, 109, -57, 77, -41, 13, 62, 44, 19, 35, 15, 66, 13,
    -39, 65, -39, -86, 34, -57, -126, 22, -51, -127, -109, -63, 20, -61, 86, 0,
    -91, -43, 7, -63, -37, -48, -2, 54, -48, -43, -24, 64, -12, 46, 76, -55,
    -15, 1, -127, 13, 4, -31, 6, 33, -45, 15, 19, 35, 4, 16, -61, 29,
    -17, 13, 15, 24, 7, -72, -14, -50, -36, -7, -18, -3, 1, -29, 6, -7,
    -48, -41, 46, -35, 5, 53, -28, -16, 29, -6, 109, -127, -7, 73, 17, -49,
    -67, -47, -7, -11, 102, 65, -36, -31, -15, 34, 7, 113, 78, 20, 42, 0,
    60, -61, -17, 48, -41, -21, -107, -43, 9, -127, 12, 9, 18, -33, 35, -24,
    -13, -45, 27, 0, -9, -5, -58, 4, 61, 7, 14, -34, -18, -17, -13, -30,
    -67, -97, 21, 50, -25, -49, 74, 80, 44, 84, 28, 34, -50, -14, 61, -49,
    28, -78, 127, -114, -87, -35, 61, 23, -25, -18, 0, 117, -83, 65, -62, -57,
    -13, 31, -29, -124, 27, 72, -34, -52, -27, -30, -53, 49, 81, -12, -49, -16,
    -1, -68, -21, 4, 127, 67, -10, 55, 79, -19, 7, 44, 124, -51, 26, -71,
    -76, 74, 105, 127, -17, -55, 68, 108, -73, 49, 30, 70, -18, 8, 34, 78,
    -18, 60, -3, 69, -49, 93, 45, 29, 104, -37, -29, -24, 43, -47, 56, 71,
    108, -13, -63, 41, 40, 91, 28, 127, -40, 52, 5, 4, 3, 113, -31, -52,
    17, -26, 94, 48, -116, -31, 9, -50, -11, 40, 32, 93, -111, -104, -18, -16,
    25, -101, 88, -117, 2, 86, 2, 21, -6, -1, 21, -13, 112, 24, -40, 55,
    -13, 106, 94, 71, 24, -45, -30, -3, 127, -12, 16, -63, -69, -24, 79, 50,
    123, -25, 40, -100, -21, -104, 67, -18, -15, 88, 9, -8, 96, 12, 3, -19,
    -40, -12, 127, 1, 40, 31, 43, -26, -74, 11, 11, 40, -71, -58, -42, 39,
    70, -10, 50, 37, -39, 39, 43, -63, 49, 30, -25, 60, 65, 0, -54, 5,
    61, -19, -45, -42, 72, 33, 18, 0, -27, -89, -46, 13, 38, -127, 12, -9,
    115, 76, -61, -2, 32, -27, 46, -9, -41, 57, 104, -127, 76, 60, 9, -74,
    -33, -122, -3, 64, -117, 34, 5, -11, 8, -22, -50, -95, -20, 49, -46, -127,
    -88, -33, 19, -13, 20, -1, 12, -10, -86, -6, 74, -2, 97, 24, 63, 38,
    -92, 69, 126, 71, -50, 54, 36, 75, -127, 21, -1, -20, -14, 9, -65, 52,
    -21, 66, 66, -76, 117, -64, 29, -19, 64, 43, -37, 56, -94, 90, -6, -72,
    7, -83, 102, 11, -99, -80, -3, 127, 34, 62, 61, -18, 115, -79, 88, -1,
    23, -3, -5, -46, 35, 87, -65, -18, -97, -90, 72, 127, 59, 73, 58, -1,
    55, -33, -21, -34, 28, 17, -61, -45, 5, 99, 111, -98, 25, 24, 2, -1,
    5, -22, -6, 41, 46, -2, 10, -28, -33, 4, 34, -8, 35, 16, -19, -69,
    29, -85, 25, -127, 21, -64, 24, 63, -51, -47, -29, -52, -32, 18, -26, -51,
    88, -39, -80, -54, -23, 16, -59, -5, -16, -103, 71, -11, 15, 5, 2, -78,
    57, -98, 127, 2, -6, -25, -63, -50, -93, 19, -12, -76, 43, 24, -46, -86,
    14, 77, 22, 48, 30, 41, -20, -126, 2, 3, -19, -36, 20, 5, -40, -48,
    -127, -101, -32, 115, -38, -75, 20, -17, -73, -39, -33, 7, 26, -47, 122, -24,
    -71, 21, 21, 32, 12, -7, -57, -45, 31, -75, 57, -32, 14, 8, -60, 76,
    95, 127, 55, -56, 31, -53, -47, -23, -71, 4, 14, -45, -18, -33, 53, 86,
    -95, -71, 31, -7, 86, 20, -54, -121, 71, -59, 27, -5, -36, 125, -32, -46,
    59, -74, 12, -8, 74, -88, -74, -4, -17, 114, 87, 70, 17, -52, -127, -33,
    -7, 1, 0, 26, -113, 36, -2, 37, 28, -20, -67, -35, 12, -98, -15, 3,
    47, 11, -27, 8, -39, -1, -11, -93, 9, -127, -106, 38, 12, -33, 7, -36,
    -11, 80, -37, -26, 1, -71, -52, -93, 80, -38, 4, 32, 34, 14, -60, -30,
    -24, -16, 41, 112, -28, -72, -15, -57, -14, 70, 89, 120, -76, 116, -127, 19,
    -20, 5, 23, 10, -24, 17, -92, 15, 104, -127, -48, 27, -38, -59, -2, 24,
    48, 36, -4, -40, 28, 25, -69, 7, -12, -12, 19, -19, 11, -8, -5, 49,
};
static const int32_t conv5_bias[24] = {
    -8799, 17333, 7238, -2393, 6223, -2689, 1040, -13296,
    -3687, -10248, -1141, -3275, 5584, -327, 3859, 158,
    11330, 6904, 8225, 3161, 10540, 9139, 450, 4891,
};
static const float conv5_w_scale[24] = {
    4.5180283487e-03f, 4.5917374082e-03f, 6.4353984781e-03f, 3.5799085163e-03f, 6.3768164255e-03f, 3.8451792207e-03f, 3.6948185880e-03f, 2.9889126308e-03f,
    3.7636333145e-03f, 3.6798231304e-03f, 4.7097331844e-03f, 4.3900539167e-03f, 3.5693442915e-03f, 3.8752513938e-03f, 3.3506779000e-03f, 3.7602614611e-03f,
    4.2038620450e-03f, 3.7704282440e-03f, 3.7177086342e-03f, 5.0705592148e-03f, 3.5611330532e-03f, 5.2303886041e-03f, 4.0808664635e-03f, 5.7657202706e-03f,
};
static const float conv5_in_scale = 2.3529412225e-02f;
static const uint8_t conv5_in_zp = 0;
static const float conv5_out_scale = 2.3529412225e-02f;
static const uint8_t conv5_out_zp = 0;

/* ---- Conv layer 6: Conv_231 ---- */
/* in=24x16x16 out=48x16x16 k=1x1 s=1 p=0 g=1 standard */
static const int8_t conv6_weight[1152] PROGMEM = {
    -4, 35, -7, 25, -28, -2, -23, -24, -6, 0, 43, -30, 32, 33, 32, 11,
    8, 13, 6, -29, -18, -40, -6, -127, -5, 39, -5, 16, 63, -1, 51, -44,
    -21, -6, -3, -46, -46, -35, 7, -44, 8, 37, -13, 22, 79, 31, 50, 127,
    -36, 14, 4, -35, 51, 46, -127, 29, -14, 10, -27, -73, -23, -29, 31, -56,
    0, 7, -21, 31, 23, 4, 14, -31, 72, 45, 19, 44, 18, -54, -10, -127,
    -14, -25, 55, 14, 56, 8, -98, 23, 53, 28, 19, -6, -51, 36, 1, -66,
    -110, -82, 99, 69, 44, -1, 24, -28, 88, 30, 32, 41, -127, 82, -18, 108,
    -2, -25, -47, -43, 18, -62, 36, 0, -74, 3, 35, -7, 32, -69, 4, -24,
    34, -4, 127, -13, 59, 38, 44, 31, -35, 69, 5, 0, -102, 64, 23, 65,
    -34, -28, -8, 5, -66, -16, -24, 18, 81, 113, 19, 20, 92, 51, 22, -19,
    -28, -13, 127, -10, -55, 3, -15, -94, 127, 47, -35, 73, -45, -63, 22, -46,
    -47, -4, 44, 18, 39, 20, -10, -10, -7, -50, 45, -35, 4, 30, -42, -93,
    -38, 6, -31, 47, -64, -50, 28, -27, -67, 127, -78, -34, 55, 17, 52, -6,
    -63, -56, 36, -114, -72, -115, 43, -10, 18, -5, -28, 57, 110, -2, 35, -21,
    -5, -49, -30, -10, 5, -108, -43, 25, -69, 47, -32, 68, 68, 0, 102, 127,
    -17, -41, 76, -93, -85, -13, -127, 1, 24, -93, 15, 34, -43, 72, -24, 4,
    48, -36, -9, 75, 67, -10, 24, -7, -41, -65, -23, -29, -75, -127, -3, -109,
    -40, 14, -12, -48, 22, 13, -54, 16, 41, -18, -45, -77, 69, -11, -7, 1,
    -51, 54, 8, 56, 5, -46, 1, -2, 46, 25, -24, 15, 60, 5, 29, 42,
    2, 65, 46, 58, 80, -127, -8, -32, 25, 83, 45, 5, -73, 11, -8, -89,
    -73, 27, 127, 8, 67, -29, -116, -74, -122, -26, -31, -56, -75, 109, 76, 105,
    61, -55, -17, -111, -81, -33, 102, -26, -127, -32, 88, 62, -78, 57, -3, 70,
    65, -8, -26, 22, -61, -69, -43, -83, -102, -106, -28, 57, 24, 64, 7, -29,
    10, -13, 9, -75, 2, 73, 46, 127, -31, -30, -120, -25, -32, -77, 1, -50,
    -10, -65, 3, -22, -16, -18, 5, -103, 1, -28, -8, -72, 75, 18, -44, 127,
    -29, -16, 2, -48, 21, -31, 24, -71, 26, -59, 28, 5, -127, 107, 6, 46,
    -46, 62, 27, -65, -68, -50, 115, 11, -59, -52, -120, 107, -15, 63, 12, 27,
    27, -71, -38, -2, -79, -58, 46, 48, -16, -17, 43, 71, 28, 127, -23, 15,
    31, -83, -63, -65, -9, 38, 12, 31, -12, 13, -64, 69, -13, 2, -69, -62,
    13, 50, 34, -123, -67, 97, -51, 10, -7, 47, -43, -44, -23, -25, 127, -27,
    -127, -23, -15, 77, 71, -121, 55, 37, -103, 18, -83, -87, 1, -91, 44, -46,
    -24, -90, 89, 28, -59, 61, 30, -26, -8, -58, 14, -60, -65, -30, -101, 38,
    27, -22, -44, 52, 127, 29, 70, -48, 3, -102, -55, 9, -54, 9, -34, -83,
    -35, -73, 22, -22, -110, 10, -28, -4, 6, -6, 23, 32, 15, -2, 24, -15,
    -38, -38, -56, -51, -20, -43, -41, -127, -20, -15, 5, -41, -2, -17, 54, -74,
    -74, 43, -78, -59, -62, -71, -105, 96, 56, -66, -3, -18, 70, -62, -127, 47,
    -22, 51, 17, -32, -25, -47, 5, 22, -22, -1, -34, 40, -23, 77, -30, 57,
    -87, -82, -23, 127, -53, 28, 20, 48, -15, 21, -35, -14, 75, 73, 46, 58,
    75, -86, -75, -16, 17, 0, -15, -44, 127, -51, -27, -112, 16, 89, 38, -19,
    -54, -71, 17, -24, -74, -32, -120, -36, -66, 39, -19, -9, -99, 60, 42, -11,
    11, -115, -68, 127, -51, -101, -37, 20, 52, 31, -70, 32, 59, 24, 66, 72,
    -13, -3, -1, 5, -38, -29, -66, 73, -9, -84, -127, 26, -37, 12, -52, 5,
    -70, 28, -99, -21, -10, 87, -59, -54, 13, -7, 77, 1, 1, -77, -5, -44,
    10, 105, 82, -11, -73, -23, -3, -127, -45, 62, 27, -13, 59, 9, -24, 17,
    -23, -29, -37, 25, 8, 8, -22, 49, 127, 8, 19, 7, -36, 12, 22, 16,
    27, -6, -79, 22, 22, -58, 3, -1, 110, 24, 93, 12, 127, 15, -34, -49,
    -14, -17, 86, -47, -60, 14, 18, 8, 52, 109, -86, -30, 38, 9, 86, -60,
    -23, -31, 27, 20, 10, 124, -86, -100, 112, 2, -11, 8, 61, -127, -41, -26,
    -45, 85, 127, -54, 24, 90, 5, -4, -71, 51, -91, -56, -25, -13, 37, -94,
    -50, 22, 14, 14, 73, -41, 52, -88, -15, 112, 71, 25, -5, 9, 7, -33,
    -114, 11, -79, -119, 39, -14, 76, 38, 9, 29, -13, -24, 96, -127, -10, -22,
    -114, 54, -127, -122, -82, 58, 72, -123, -50, 65, -2, -54, -18, -1, 68, 4,
    33, 28, 14, 15, -75, -117, 10, 29, -20, -57, 61, -29, -3, 73, 99, -1,
    22, -36, 41, 75, -41, 85, -15, 3, 45, 107, -127, -31, -6, -12, 13, -28,
    127, 115, -10, -56, 35, -13, -83, -17, 2, -43, 76, -49, -27, -89, 53, 54,
    -12, -26, -69, 38, -67, -67, -40, 38, -9, 66, -42, 47, -6, -18, -47, -3,
    -48, -27, -106, -71, 15, 18, 15, 42, -99, -127, -40, -19, 21, -19, 22, 38,
    9, -3, 4, 34, -20, 2, 8, 48, -43, 127, -40, -67, 48, -18, 75, -7,
    -26, -47, -59, -25, -52, -26, 28, 23, -78, -11, -41, 17, 7, -26, 35, 98,
    -38, 13, -20, -10, -47, 9, 10, 47, -106, -82, -127, 19, -7, -68, 4, 101,
    -28, 93, -116, 100, 70, 10, 70, -93, -39, -77, -30, -90, 42, 47, 105, -21,
    -87, -60, -11, -111, 34, -127, 13, 41, 24, 61, -83, -3, 91, 2, 39, -49,
    -48, -60, 6, 75, 18, 127, -48, -44, 109, -26, -59, -16, 12, -37, -21, 34,
    6, 35, 33, 4, -28, -5, -119, 16, 4, 23, 10, 18, 47, 70, 127, -17,
    -47, -48, 19, -49, 12, -102, -37, -122, -32, -54, 19, -122, -95, -8, 92, 54,
    59, -73, 20, 15, -112, 0, -24, -28, 41, -41, 35, 32, -127, 88, 34, -75,
    -34, -13, -4, -53, -61, -3, 12, -127, -84, 53, 1, 9, -93, -6, 16, -27,
    27, 61, -45, -5, -5, -43, 0, 67, -3, 23, -30, -10, 73, -30, -7, -53,
    5, 10, -28, 31, -36, 26, 7, -40, 2, 87, 45, 28, -23, 76, -18, 127,
    63, 8, 70, 28, -6, 10, -8, 6, 23, 93, -99, 16, 5, -39, -69, 45,
    30, 40, -43, -22, -1, 76, -127, -31, 65, -12, 11, 82, -39, -83, 127, 50,
    -92, 12, -42, -11, -47, 9, -33, -65, -92, -17, 51, -91, 2, 49, 95, -42,
};
static const int32_t conv6_bias[48] = {
    12140, -6870, 10362, -2188, -2605, -269, 954, 6327,
    6540, -5713, 4501, 22261, -6638, 8275, 21084, 6502,
    10963, -1416, 699, 5460, 7704, 10458, 17519, 16981,
    3577, -2303, 15464, 10684, 3723, -5735, -3872, -4322,
    2437, 8724, 11394, -3989, 3690, 22811, 818, 10074,
    3822, -7028, 1170, 7765, 21762, -9684, 159, 10967,
};
static const float conv6_w_scale[48] = {
    2.2076107562e-03f, 5.0650043413e-03f, 3.3613950945e-03f, 4.0190280415e-03f, 3.7334575318e-03f, 3.4026929643e-03f, 3.3434107900e-03f, 2.9616300017e-03f,
    3.4640312660e-03f, 4.5598181896e-03f, 5.9183486737e-03f, 2.4738186039e-03f, 7.7656302601e-03f, 3.6616672296e-03f, 1.5899819555e-03f, 4.6034366824e-03f,
    3.6720074713e-03f, 4.1760816239e-03f, 5.4805120453e-03f, 5.7659908198e-03f, 4.2217057198e-03f, 5.5113690905e-03f, 4.5412671752e-03f, 2.5442428887e-03f,
    4.7176983207e-03f, 4.7398908064e-03f, 5.1377555355e-03f, 2.4630364496e-03f, 3.6366984714e-03f, 9.7462376580e-03f, 6.4549124800e-03f, 3.7870781962e-03f,
    5.9201652184e-03f, 2.1535013802e-03f, 3.2887395937e-03f, 5.1852432080e-03f, 3.6450207699e-03f, 1.7811167054e-03f, 6.3453922048e-03f, 3.1445599161e-03f,
    3.2646695618e-03f, 3.9929538034e-03f, 3.9749382995e-03f, 6.4888759516e-03f, 1.6844987404e-03f, 4.2850319296e-03f, 6.5202061087e-03f, 2.5184815750e-03f,
};
static const float conv6_in_scale = 2.3529412225e-02f;
static const uint8_t conv6_in_zp = 0;
static const float conv6_out_scale = 2.3529412225e-02f;
static const uint8_t conv6_out_zp = 0;

/* ---- Conv layer 7: Conv_233 ---- */
/* in=48x16x16 out=48x8x8 k=3x3 s=2 p=1 g=48 depthwise */
static const int8_t conv7_weight[432] PROGMEM = {
    -63, -23, 64, -118, -29, 127, -103, 5, 123, -76, -127, -77, 7, 18, 14, 67,
    125, 90, 65, -19, -60, 119, 2, -127, 106, 28, -109, 72, 45, 0, 127, 103,
    -14, 85, 98, 13, 42, 125, 127, -4, 79, 90, -37, -55, -30, 2, -64, -66,
    -79, -127, -108, -109, -123, -75, 43, 55, 46, 22, 59, 45, -88, -127, -73, -68,
    -93, -85, 23, 26, -9, 76, 127, 67, 79, -5, -127, 114, 83, -57, 47, 95,
    34, 110, 86, -1, 127, 119, 47, 24, 45, 28, 41, 88, 60, 53, 127, 91,
    29, 71, 66, 57, 38, -22, 28, -68, -113, -65, -127, -78, 43, 69, 22, 71,
    127, 74, 36, 87, 63, 41, 90, 54, 89, 116, 84, 96, 127, 94, -100, -70,
    9, -72, -121, -62, 49, -42, -127, 22, 23, 16, 30, 106, 96, 38, 127, 113,
    94, 104, 33, 127, 108, 9, 67, 38, -14, 39, 48, 33, 63, 127, 96, 39,
    92, 73, 47, 87, 52, 73, 127, 55, 31, 45, 22, 60, 93, 63, 90, 127,
    89, 33, 56, 42, -24, -49, -32, -83, -111, -66, -109, -127, -52, -12, -10, 29,
    -58, -103, -42, -53, -127, -85, -61, -85, -26, -99, -127, -54, -60, -73, -16, 70,
    87, 31, 6, 10, 22, -127, -109, 6, 46, 72, 45, 74, 127, 86, 43, 82,
    54, 64, 105, 127, 29, 93, 100, -4, 60, 46, -23, -49, -90, -33, -81, -113,
    -48, -127, -120, -78, -121, -75, -9, -12, -9, 90, 127, 86, 65, 100, 56, 93,
    127, 62, 52, 64, 28, 22, 97, 81, 127, 108, 38, 123, 63, -45, -113, 127,
    111, -95, 126, 76, -51, 88, 42, 42, 84, -14, 39, 51, 70, -51, 18, 127,
    35, 77, 56, 104, 127, 59, 60, 84, 28, -127, -91, -52, -110, -51, -13, -76,
    -42, 6, -20, 57, 101, 61, 121, 127, 93, 86, 42, 45, 78, 43, 72, 127,
    54, 25, 73, 44, 48, 10, -15, 47, 23, 6, -127, 38, 93, 60, 109, 69,
    25, 27, -2, -61, -127, -80, -124, 68, 88, -127, 17, 100, 57, -81, -5, -45,
    -92, -70, -99, -127, -106, -81, -74, -46, 28, 81, 69, 56, 127, 103, 39, 79,
    51, 37, -70, 24, -127, 74, 75, 8, 61, -3, 44, 84, 64, 62, 127, 71,
    45, 73, 30, 18, 23, 87, 8, 47, 127, -18, 33, 91, -127, 1, 44, -121,
    -4, 78, -109, -34, 61, -5, 1, 8, 70, 125, 62, 74, 127, 46, -3, 29,
    -3, 60, 90, 38, 100, 127, 77, -122, -127, -45, 28, -48, -83, 35, 23, -17,
};
static const int32_t conv7_bias[48] = {
    -525, -273, -1039, -68, 57, 21346, 1180, -204,
    -786, -4217, -5432, 11515, 20, -10628, 16115, 219,
    -4518, 900, 16, 154, 13915, 12394, 11177, 407,
    -593, -6109, 19981, 1535, -106, -4946, -4375, -1185,
    -6588, 15590, -8346, -4100, -4710, -41, -95, 13308,
    1512, -720, -4181, -2503, 5914, 114, -3536, 6157,
};
static const float conv7_w_scale[48] = {
    1.0713251308e-02f, 7.0329508744e-03f, 8.7005700916e-03f, 8.6581455544e-03f, 6.0794721358e-03f, 4.6255243942e-03f, 9.1065121815e-03f, 7.1903648786e-03f,
    7.5181527063e-03f, 3.9359889925e-03f, 3.8248184137e-03f, 7.4021713808e-03f, 3.0650009867e-03f, 4.1151922196e-03f, 5.9815426357e-03f, 3.4988312982e-03f,
    5.4027191363e-03f, 4.2892200872e-03f, 3.1586042605e-03f, 3.1526305247e-03f, 4.2476318777e-03f, 4.1412389837e-03f, 5.8488994837e-03f, 8.3176726475e-03f,
    4.1498378851e-03f, 4.0268027224e-03f, 3.1680571847e-03f, 7.2003169917e-03f, 9.0733710676e-03f, 2.7414108627e-03f, 2.2951788269e-03f, 4.7286632471e-03f,
    3.9827339351e-03f, 6.1746989377e-03f, 4.5830337331e-03f, 4.2489115149e-03f, 8.1276958808e-03f, 1.0431417264e-02f, 6.1856294051e-03f, 5.0685256720e-03f,
    3.8819340989e-03f, 7.6373205520e-03f, 4.9345688894e-03f, 3.4949244000e-03f, 1.0821473785e-02f, 7.8724576160e-03f, 4.9364855513e-03f, 6.4540519379e-03f,
};
static const float conv7_in_scale = 2.3529412225e-02f;
static const uint8_t conv7_in_zp = 0;
static const float conv7_out_scale = 2.3529412225e-02f;
static const uint8_t conv7_out_zp = 0;

/* ---- Conv layer 8: Conv_235 ---- */
/* in=48x8x8 out=32x8x8 k=1x1 s=1 p=0 g=1 standard */
static const int8_t conv8_weight[1536] PROGMEM = {
    7, 60, -13, -2, -11, -61, -9, 2, 7, 15, 0, 60, -104, 57, -11, 55,
    43, 102, 8, -1, -79, -122, -114, 72, -26, -80, 52, -105, 7, -12, 4, 0,
    -56, -81, -26, -24, 68, -18, 70, -127, 110, 10, 11, -12, -4, 53, -119, 89,
    17, -1, 7, 23, 72, -78, -53, -16, -19, 86, -17, 65, 6, -107, 7, 59,
    -4, 61, -41, 0, -37, 34, -9, 80, 57, 70, -127, -52, -13, 57, -48, 39,
    -38, 8, 11, 24, 29, 7, 27, -17, 2, 15, 14, -37, -7, -49, -74, 71,
    20, 28, 1, 33, -48, -67, 7, 20, 46, -40, 9, -65, -1, 53, 13, -59,
    -22, 73, -46, -54, 12, -50, 20, -3, -74, 52, 119, 82, 12, 41, -18, 31,
    16, 56, -34, 72, 74, -1, 25, -20, 18, 35, -18, 23, 10, 127, 80, 20,
    -18, -30, -68, -30, -115, 19, 14, -25, 4, -42, 120, -127, -40, 31, -41, -113,
    56, -116, 2, -112, 15, -33, -51, -6, -69, 96, 22, 14, 17, -29, -45, -8,
    -25, 14, 48, -13, -4, -123, -34, 99, -21, -23, -20, -52, -77, -25, -42, -35,
    -29, -3, -17, 6, -24, -3, 38, 49, -39, 2, -44, -91, -46, -45, -35, 37,
    23, 44, 29, -27, -38, -6, -127, -42, -30, -17, -50, -44, -36, -56, -75, 26,
    5, -25, -30, 30, -6, -70, -30, 39, -18, 9, 45, -39, -83, 18, -66, -14,
    2, -127, -2, 41, 46, -124, -19, -31, 45, -53, -22, -6, 9, 47, -25, -56,
    107, 12, -16, -50, -18, -17, 16, 17, 61, -50, -17, -38, -32, -12, 42, 45,
    71, -20, -22, -27, 31, -6, 57, -32, 52, 38, 90, -37, 21, -56, 54, -19,
    45, 40, 0, 32, -39, 77, 59, 29, -14, 60, 39, 3, -14, -25, 10, -65,
    -126, -18, 27, -55, 39, -72, -58, -12, 22, 17, -44, 35, -24, 80, -98, 83,
    1, 6, 51, -41, 3, 5, 15, 2, 127, 68, 26, -69, -28, 82, -55, -41,
    44, 49, -30, -4, -10, -52, 73, -15, -10, 57, -10, 43, -117, -20, 101, -76,
    58, 86, 4, 46, 81, 49, -44, -13, -5, 7, -56, 31, 40, -80, -55, 42,
    -5, -39, 8, 26, 99, 46, 8, -55, 1, -4, 2, -121, -84, -32, -29, 127,
    -29, -3, -27, 1, -29, 27, 50, -26, 34, -7, 14, -28, -112, -8, -95, -46,
    -3, 71, 2, -84, -19, -8, 24, 1, 28, -98, -93, 34, 40, 4, 20, -15,
    -88, 59, -37, -1, -96, 18, -15, -127, -82, -14, 2, 26, -46, -34, -31, 14,
    -36, 42, -45, -33, -3, -84, 6, 74, 60, -7, -22, 88, 26, -49, 68, -1,
    -59, -55, 71, -10, 41, -85, -127, 14, -62, 56, 4, 17, 23, 42, 6, -1,
    -69, -16, -108, 14, 4, 11, 14, 8, 23, -27, 125, 75, 28, -15, -96, 49,
    -127, 42, 43, -35, 14, -24, 14, 59, 18, 2, -6, 48, -59, 1, -18, 30,
    85, 21, 78, -22, -32, 45, 2, 24, 62, 25, -4, 93, -66, -18, -18, 32,
    -8, -52, 12, 27, -25, -61, 26, 16, 12, 5, 8, -61, -81, 3, 35, -6,
    121, 11, -68, -17, 94, 11, 49, 54, 59, -22, 38, -5, 16, -39, -86, -40,
    -40, -63, 54, -21, -47, -40, -123, 37, -15, -53, 6, -71, -23, -31, -46, 8,
    -101, -64, -74, -21, -24, 81, 20, 46, 33, -10, 55, -79, -97, 127, 57, 31,
    -1, 1, -29, -28, -14, 47, 22, -40, -48, 91, -99, -31, -53, -1, -82, 71,
    29, -21, 82, -85, -19, 11, -62, 83, 16, -29, 43, 127, 17, 8, 25, -5,
    -23, 94, 37, 1, 7, 41, 0, -111, 54, 26, -97, 57, 2, 70, 49, -64,
    -56, 67, -16, -7, 77, -47, 31, -39, 0, -25, -23, 31, 3, -122, -5, 50,
    -38, -57, -32, 17, -18, -37, 26, -3, 12, -126, 65, -45, 70, 36, -56, 10,
    -22, -105, -18, 110, 29, 39, 57, -4, 127, 13, 57, -8, -78, 12, -1, -64,
    -111, 10, 18, -52, 11, 4, -43, 1, 4, 27, 32, 24, -43, -4, -44, 77,
    -34, 60, 31, 28, 19, 37, 57, -101, 119, -60, -53, -50, -66, -15, -67, -50,
    21, -83, -47, 18, -23, 77, -17, 17, 48, -48, -25, 8, -92, -46, -127, -63,
    -19, 100, 13, 42, -1, -19, 62, 14, -32, 127, 1, -51, -14, -43, 40, 29,
    79, -48, -9, 21, 35, 19, -26, 62, -27, 30, -27, 0, 24, 40, 20, 42,
    12, -26, -69, -38, 37, 10, 63, -7, -29, 37, 63, 0, 1, 11, -10, -43,
    42, 41, 16, 7, 64, -24, -34, -6, -6, -41, 82, 24, -23, 46, 13, -85,
    -57, -22, 48, -9, 26, -37, -84, -56, 11, 114, -37, -78, -39, -77, -13, -16,
    4, 57, -25, -43, -29, 3, -36, -75, -45, -39, -26, 79, 127, 99, -53, 31,
    60, 11, 123, 127, -28, -96, 53, -26, 51, 26, 5, -7, -3, 65, 39, -54,
    21, 24, 46, 28, 10, 1, -43, -33, 112, -66, -24, -13, 77, -17, 25, 41,
    -53, -38, -42, 3, 2, -28, 4, -102, 5, 15, -18, -63, 9, -13, -95, -25,
    -6, 63, -10, -2, 22, 20, 36, -35, -49, 31, -82, 64, 17, 42, 2, 17,
    69, -67, -73, -102, -82, 48, 31, 27, 38, 22, 63, -53, 11, 17, -65, -16,
    -56, -24, 127, -47, 8, -110, -59, -73, 27, -11, 9, 3, 40, 125, -26, -34,
    62, -28, 43, -5, -70, -13, -64, 14, -31, -54, -19, 66, 39, 6, -6, -24,
    48, 38, -17, -25, 29, -8, -14, -21, -49, 22, 8, -2, -40, 25, -27, -29,
    81, -69, 111, 30, -12, 13, 7, 127, 64, -10, 36, 25, 14, -21, 7, -30,
    -91, -59, 78, -19, 1, 52, 31, 90, 88, 54, -2, -111, -27, 56, -1, 8,
    28, -22, 16, 24, -86, 127, 13, -35, -80, 30, 34, -55, -85, 42, -67, 33,
    6, -88, 14, 1, 30, 22, 60, 61, 106, 5, -97, -78, -42, -123, -46, 106,
    -56, -72, -52, -126, -61, 127, -14, 102, -37, 48, -2, -5, 25, 71, -39, -116,
    -11, -5, -114, -106, -32, 14, 44, -67, -106, 55, 46, -19, -94, -83, 65, -24,
    33, 47, -66, 19, -61, 2, -74, -20, -91, -77, -15, 122, 65, 22, -33, -44,
    -127, -27, -70, -96, 46, 10, -1, -14, -75, 20, 72, -15, 66, -24, -26, -16,
    -64, 35, 8, -49, 112, 42, 14, -42, -70, 15, -15, 43, -22, -28, -8, -31,
    35, 40, 50, 15, -40, -10, -49, 4, 33, -45, -20, -30, -7, -20, 62, 41,
    -40, 19, 82, 88, 78, 48, 4, 56, -83, -40, 24, -116, -92, 121, -127, -63,
    45, 5, 78, -32, 6, 46, 103, 17, -18, -85, -3, -9, 13, 44, -61, 20,
    -91, -66, -28, 109, -25, 120, -72, -107, -79, -20, -35, -34, -72, -79, 5, 21,
    -21, -38, 77, 9, -10, 64, 22, 57, 70, 51, -54, -74, 65, 26, 104, 88,
    -60, 69, -38, -7, -17, -21, 78, 14, 34, 57, -77, 15, 66, 45, 127, -30,
    65, -71, 47, 15, -37, 57, 57, 60, 98, 8, -82, 112, -43, 21, 68, 29,
    -39, 9, 26, -6, -3, -52, -10, 35, 17, 108, -23, -52, 104, -34, 91, 63,
    18, -10, -17, 31, 17, -4, -69, 22, -25, -38, 1, 8, 16, -67, 26, -124,
    -74, 29, -127, -1, 44, -5, 16, 42, 28, -103, -95, -42, 101, 20, 0, 35,
    3, -12, 40, -13, -34, 23, 28, 23, 9, -30, 59, -4, -34, 9, -3, 77,
    5, 3, 24, 127, -6, -3, -1, 2, -13, 28, -25, -45, 3, 10, -66, 12,
    3, -7, 53, -25, -1, -4, 3, -8, -46, 11, 34, -34, -46, -36, 42, 2,
    -3, 7, 68, 24, 54, -66, 12, -42, -10, 47, -23, 79, 37, -7, 54, -11,
    -23, 51, 25, 90, 34, 127, 65, -42, 5, -18, -2, 62, -57, 21, -40, -2,
    85, 24, -33, 34, 36, -11, 40, -2, 60, 6, -41, 9, 33, 21, 71, 7,
    -83, -4, 8, 16, 7, -80, 22, 57, 74, -31, -25, -35, 15, -12, -77, -18,
    -111, 9, -8, -3, -5, 50, 15, 42, 20, -93, -64, 34, 52, 49, -107, 16,
    -56, -76, -33, 1, -31, 78, 24, -15, -14, 25, 4, -127, -66, 28, -43, -24,
    -1, 82, -40, -26, -13, 59, 62, 97, 46, 4, -84, 8, 43, 24, 23, -36,
    -59, 6, -73, 2, -26, -87, -42, 15, 60, 18, -38, -73, -24, -50, -6, -29,
    -2, -13, -78, -127, 55, 57, 5, -74, 49, -49, 77, 14, -15, -80, 36, -43,
    2, 54, -9, -10, -17, 6, 31, -17, -32, 75, 48, -28, 90, -34, -46, -40,
    69, 15, -24, 35, 90, 11, -8, -37, 51, -19, -7, 32, -52, -4, -27, 30,
    -37, -127, 53, -29, 38, 3, -22, 58, 48, 23, 37, 9, -6, 14, -27, -5,
    11, -70, 19, 3, 36, -1, -39, -33, 10, 52, 70, 10, 64, -33, 69, 31,
    33, -51, -127, 42, -99, 50, 34, 35, -53, -93, 97, -5, 39, -10, -25, -25,
    62, -101, -120, 26, 36, -47, 4, 21, -36, -7, 43, -43, -62, 8, -15, 33,
};
static const int32_t conv8_bias[32] = {
    9617, 339, -8910, 26957, 28352, 2759, -103, 5514,
    26418, 5133, -5263, 11573, -5714, 1131, 14117, -5547,
    11686, -889, 142, -1795, 19269, 27435, 807, 19939,
    -28374, 1950, 1510, -18519, 25919, 9692, -7403, 11879,
};
static const float conv8_w_scale[32] = {
    3.2786275260e-03f, 2.7623793576e-03f, 3.4154446330e-03f, 2.9448834248e-03f, 3.7386489566e-03f, 2.9611585196e-03f, 2.5810969528e-03f, 3.1998101622e-03f,
    3.3191624098e-03f, 2.6457433123e-03f, 3.1835164409e-03f, 3.5907800775e-03f, 3.0619069003e-03f, 2.7277241461e-03f, 2.4064283352e-03f, 4.3207546696e-03f,
    3.0327797867e-03f, 3.6762086675e-03f, 3.1075568404e-03f, 3.1500563491e-03f, 2.3723004851e-03f, 2.1480682772e-03f, 4.3598995544e-03f, 2.1420496050e-03f,
    3.1378571875e-03f, 3.2551470213e-03f, 4.1959066875e-03f, 3.1497571617e-03f, 2.6833841112e-03f, 3.1938725151e-03f, 3.3024002332e-03f, 2.8319205157e-03f,
};
static const float conv8_in_scale = 2.3529412225e-02f;
static const uint8_t conv8_in_zp = 0;
static const float conv8_out_scale = 1.9444543868e-02f;
static const uint8_t conv8_out_zp = 0;

/* ---- Conv layer 9: Conv_237 ---- */
/* in=32x8x8 out=64x8x8 k=1x1 s=1 p=0 g=1 standard */
static const int8_t conv9_weight[2048] PROGMEM = {
    -71, 72, -29, -54, 77, -61, -115, 60, -75, 4, -82, 50, -13, -47, -24, 31,
    98, -9, 28, -31, 30, -49, -27, 17, -45, 127, 46, 8, -101, 6, -65, 51,
    37, -94, 37, -47, -14, -22, 23, -30, -71, -2, 20, 92, -18, 84, -40, -8,
    53, 54, 99, 84, 92, -33, -127, 64, 25, 17, 65, 50, -58, -84, -28, 9,
    -8, 64, -54, -57, -127, -1, -83, 18, -59, 90, -75, -10, 6, 100, -60, 26,
    -55, 22, -17, 14, -16, -52, 10, -18, 28, -7, 24, -83, 97, 26, -117, 41,
    13, 13, -17, -90, 7, 9, 88, 45, -5, -19, -127, -76, -23, -41, 58, 26,
    -105, -41, 46, 63, 21, -124, 35, 29, 58, 71, -58, 49, -18, 28, -51, 50,
    21, 53, -127, -67, 26, -33, -8, 64, 66, -43, 25, -2, -5, -17, 84, -39,
    24, 19, 30, -42, -30, 12, 3, -47, 1, -56, 30, 27, 71, 70, 58, -55,
    -36, 11, -5, -69, 127, -11, -23, 1, 58, -57, 119, -8, -5, -17, 6, -30,
    6, -7, 2, 8, 41, -63, -89, 38, -83, -8, -49, -47, 18, -6, 62, -9,
    -13, -107, 108, 94, -77, -94, -28, -21, -49, -106, -105, -19, 65, 116, 31, -12,
    -21, -54, 27, -63, 23, 58, 111, 7, -87, -1, 37, 23, 111, -127, 39, -19,
    30, 11, -37, 45, 8, -2, 52, -79, 6, 116, 31, 127, 65, 81, 60, -62,
    -64, 32, -14, -5, 33, -106, -21, -18, -23, -28, 48, 32, -72, -49, 26, 29,
    11, -35, -18, 7, -37, -6, -25, 39, -14, -26, -58, -40, -105, -13, -73, 4,
    -33, 17, 3, 63, -32, 49, 22, -70, -33, -4, -42, 9, 127, 24, 28, 42,
    36, -56, -50, -35, -18, -6, 108, 8, -9, 30, -42, 67, -43, 127, 23, 62,
    27, -4, 31, 37, 114, -105, 8, -29, 1, 84, -111, -91, -5, 83, 82, 67,
    -38, 120, -4, -127, 11, -53, 12, 36, 51, -9, 26, -9, 103, -3, -12, 27,
    15, 30, 25, -36, -42, -44, -107, 43, 10, 50, -58, -54, 19, 75, 18, -83,
    121, 39, -47, -43, -52, 57, -14, 46, 44, -21, -40, -53, 7, -12, 127, 62,
    -104, -42, -36, 20, -24, -68, 32, -36, -28, -15, -45, 32, 79, 43, 35, 36,
    -87, -70, -24, 6, 1, -127, 95, -88, -73, -8, 85, 19, 75, 53, 75, 20,
    55, -49, -26, -50, -110, 90, 11, -32, 101, 109, 80, 104, -31, -94, 16, 112,
    53, 127, -20, -29, -33, 103, -72, -39, -65, -7, -42, 23, -21, 19, -34, -99,
    -20, 14, -56, 33, -52, -89, -120, -54, -39, -51, 69, -64, -40, 21, -72, 46,
    -6, 61, -97, -20, 28, 31, -10, -72, 63, -22, -56, 14, 6, -50, 112, -100,
    12, 40, 35, -30, -78, 12, 26, 20, 36, 15, 64, -17, 127, 22, -25, -9,
    -40, 56, -43, 29, -53, 81, 4, -120, -63, -8, 71, -2, -91, -38, 40, -18,
    -35, 16, 65, 65, 8, -43, 127, -86, 0, 69, 28, 52, -96, -22, 120, 57,
    56, -11, -22, 47, 26, 61, -53, -13, 22, -40, -20, 40, -33, 20, -60, -20,
    -42, 67, -70, 26, 71, -76, -54, 82, -9, -46, -34, 3, 49, -11, -127, 88,
    108, 105, -118, -55, 1, 29, -19, 105, 100, -2, -59, -21, -10, -27, 118, -43,
    -32, -82, 67, 1, 18, -127, 75, 16, -44, -3, 41, 25, 88, 4, 14, -42,
    72, -28, -44, -4, -46, -13, 53, 13, -61, 90, -39, 30, -69, 28, 74, 53,
    -49, -8, -72, 5, 32, -35, -127, -48, -28, -67, -11, 73, 11, -4, -78, 33,
    18, 22, -127, 22, 39, -58, -44, -69, 18, -18, 5, 21, 6, 35, 27, 71,
    14, 50, 22, -120, 30, -78, 9, -93, 14, 76, 23, 42, -30, -37, 21, 63,
    10, 62, -51, -1, 29, 93, -23, -87, 5, -60, -19, 25, 16, 71, -48, 4,
    -127, 36, 49, 24, 55, -125, -42, 11, 33, -18, 6, 9, -82, -36, 104, -5,
    -86, -22, -54, -12, 46, 69, -39, -67, -67, -63, 84, 99, 25, -35, -36, 56,
    -57, -127, -16, 20, -6, 64, 72, 6, 7, 42, -93, -66, 103, -30, 113, -14,
    16, -65, -65, -29, 34, 82, -23, -16, -83, 49, 56, 34, -66, 125, -3, -65,
    -9, 18, -70, -39, -127, -50, -64, -80, -57, -51, -10, 65, -9, 40, 59, 0,
    -3, -29, 11, 4, 66, 64, -22, -22, -69, 127, 2, 8, -15, 83, -48, 43,
    -47, 30, -42, -7, 17, -57, -7, -47, -6, -17, 55, 9, 27, 5, 32, 20,
    -39, -70, -24, 27, 15, 42, -25, -25, -92, 28, -18, 20, -9, 41, -74, 34,
    -123, 39, -40, 61, 50, -127, -28, 31, -28, 12, 2, -51, 9, -44, -9, 37,
    62, -2, -127, 26, -24, 5, 80, 74, -29, 20, 84, 24, 92, 0, -67, 103,
    -20, 90, 48, -77, 81, -29, 10, -66, -31, -16, -14, -16, 40, 75, 15, -23,
    -23, 3, 96, 78, -39, -52, 69, -34, -8, 33, 12, -19, 63, -11, -46, -52,
    -36, -26, -37, 18, 16, -70, -14, 20, 27, -127, -35, -4, 17, 1, -27, -95,
    -15, 64, 4, -15, 23, -23, 46, -127, -40, 25, -10, 56, 85, 27, 29, -36,
    56, -11, -2, -50, 31, -9, 1, 16, 14, 46, -39, 3, 23, 20, -3, -76,
    -47, -28, -26, 92, 35, 55, 12, -97, 70, -25, -8, 91, 11, 16, 40, 19,
    43, -104, -75, -10, -29, -97, 33, 61, 65, -4, 78, -30, -127, -17, 47, -31,
    -58, -31, -14, -21, -48, -27, -89, -9, -62, -25, 53, -30, 62, 111, -7, -51,
    -127, 34, 27, 1, -10, -113, -27, 57, 9, 30, -12, -15, 78, 6, -10, 5,
    33, -57, -92, -18, 127, -60, 12, 61, 17, 66, -24, 20, -9, 66, -37, 32,
    -2, -35, -71, -79, -26, -55, -61, -61, -13, -87, 41, -64, -1, -80, -114, -13,
    -36, 19, 28, 29, -102, -11, 73, 41, 60, -6, -30, 127, -41, 34, -6, 36,
    23, -17, 12, -27, -49, -58, -55, 12, 40, -32, 10, -62, -23, -101, -60, 47,
    -49, -99, 58, 13, -26, 14, -50, 57, 33, 58, 84, 15, 7, -127, -88, -4,
    3, 5, -81, -35, -116, 52, 28, -9, -5, -33, 2, 109, -28, 43, 53, 4,
    70, 123, -76, -85, -10, 111, -11, 31, 46, 60, 0, -43, -4, -11, 113, -28,
    -11, -62, -41, 6, -13, -127, 65, -38, -65, -66, 44, 30, -14, 120, 45, -4,
    5, -6, -40, 4, 127, 45, -5, 16, -69, 71, 63, 56, -17, -4, -50, 26,
    -94, -69, -5, -22, 11, -111, -36, -122, -69, 51, -8, -71, -14, 3, -14, 5,
    -19, 12, 29, -26, 42, 74, -7, 6, 0, 16, -82, 8, -16, -11, 1, -59,
    18, -56, -15, 19, -122, -37, -56, -69, -26, 46, 7, -45, -29, 127, -26, -11,
    18, 17, -47, -47, -16, -14, 7, -15, 2, -56, 5, 40, -61, -87, 22, 47,
    -69, -40, 35, -30, 47, -127, -21, -9, 40, -18, 50, -21, 22, -20, -53, 12,
    -16, -127, -37, 120, -72, 47, 58, -21, 80, 15, -58, 76, -74, -5, -32, -3,
    -34, 44, -30, 5, -80, -40, -81, -60, 67, 0, -75, -122, -104, -47, -2, 94,
    86, 7, -27, -46, 59, 75, -16, 23, -63, 94, 31, -1, -14, 35, -3, 41,
    20, -33, -35, 55, -56, -41, -66, -89, -82, -67, -7, 20, 77, 127, 8, 58,
    32, 47, -16, -49, 50, 10, -10, -7, -21, -23, -25, 7, -27, 16, 127, 73,
    -91, 10, -26, -1, 17, -92, 28, -14, -1, 32, 50, 5, 17, 34, -2, 57,
    25, -5, -73, 59, 12, 4, -7, 66, 12, -53, 34, -40, -64, -10, -68, 35,
    -82, -61, 34, 72, -54, 2, -15, 42, -49, -26, 127, -31, -32, -22, 58, 41,
    17, -21, -3, 51, -51, 60, -73, 4, 38, -5, 77, 98, 86, -24, 92, -45,
    -71, 16, -30, -114, 81, -127, -3, -67, -5, 86, -35, 45, -8, 46, -53, -119,
    18, -117, 95, 59, -48, 8, 57, -118, 101, -99, -127, -29, 64, -83, 17, 20,
    21, -14, 52, -48, 33, 83, 16, 0, 23, 2, 8, -105, -45, -17, 40, 42,
    56, -26, 8, 76, 57, -37, 125, -2, 39, -50, 17, 23, -13, -106, -47, 43,
    109, 66, 24, -49, -5, 24, 25, -52, -58, 24, -55, 57, 127, 9, -67, 101,
    -116, -69, -42, 33, -40, -21, -6, -78, -90, -1, -23, -22, -52, 105, -39, -30,
    -127, 14, -3, 66, -4, -112, -82, 52, 42, -43, 22, -96, -1, 1, -56, 108,
    29, 100, -120, -127, -39, -66, 20, 112, -103, 6, -85, -55, -30, -40, 77, 2,
    -120, 76, 71, 18, 112, -55, -57, -22, 0, 111, -92, 63, -26, -73, -40, -5,
    20, 51, 28, -60, 33, -15, 29, 41, 101, 10, 24, -24, 127, -50, -48, -81,
    3, 0, 21, 88, 23, -16, 12, -29, 13, 43, -109, 54, -59, 24, -29, 79,
    6, 37, 15, -30, 18, 45, -40, -51, -55, -1, 112, 44, 127, 65, -4, 13,
    -67, -14, -42, -46, 20, -5, -23, 49, 49, -6, -39, -19, -24, 40, -66, -62,
    -25, -11, -7, 46, -48, 19, 84, 2, -79, 5, 12, 3, 10, 38, 35, -38,
    -68, 3, 30, 88, 0, -39, 24, -26, 102, -127, -9, -41, 66, 11, -7, -91,
    -66, 43, 18, -43, -82, 12, -26, 3, -35, -31, -10, -49, -5, 85, -12, 0,
    -127, -28, -24, -3, 17, -24, -74, 23, -119, -67, -13, 61, 74, 49, 48, 42,
    -29, -10, 127, 33, 74, 29, 17, -85, 74, -47, -4, 50, 33, -22, 15, -4,
    -88, -15, 59, -8, 28, -20, -13, 117, -53, 59, -31, -72, 43, 30, 35, -46,
    53, 0, 28, 19, -41, -24, 94, -11, 106, -127, -2, -1, 25, -44, 90, 5,
    6, -3, 78, -52, 29, 21, 13, 40, -1, 33, -37, 12, 8, -32, 5, 40,
    43, -69, 32, 50, 19, 124, 58, 7, 25, -44, -14, 58, -16, -10, -123, 39,
    24, 100, -3, -54, 45, -38, -92, 7, -72, -6, -49, -20, -127, -63, -109, -70,
    -32, -4, 12, 38, -25, -58, 60, 30, 22, -87, -54, -26, -47, -13, 1, 14,
    -40, 7, 31, -46, -14, 40, -31, 26, -71, 127, -44, 2, 77, -84, -41, 63,
    15, -8, 27, -25, 54, 106, -70, -1, 13, 59, -81, -13, -18, 6, -83, 36,
    -10, 127, -43, 16, -35, -118, -41, -8, 20, -22, -19, 35, -117, 4, 24, -70,
    -44, 14, -56, -71, 21, -8, 27, -19, -16, 33, -31, 106, -90, 127, -9, -43,
    55, -8, -80, -10, 1, -46, -38, 41, -26, -24, 50, -15, -22, -53, -32, 18,
    -78, -67, -127, 51, 24, -17, -42, 54, 21, -8, -44, 82, 44, 68, 13, 13,
    -82, -55, 83, -122, -1, 53, -31, 8, -96, -68, -52, -30, 47, 54, -78, -21,
    64, 40, -7, -20, -39, -7, 59, 16, 115, -72, -33, -27, 50, -99, 127, -30,
    91, -7, 58, -21, -27, -5, 11, 17, 4, -2, -19, 42, -24, 45, -5, 1,
    -28, 31, -19, 112, 28, 51, 34, -38, 70, 32, 68, -20, 38, -17, 8, 37,
    -98, 26, -83, -14, -115, -127, 79, -21, -10, -52, 110, -121, -48, 39, -32, 75,
    -13, 26, 60, 5, -59, -21, 75, 24, -37, 23, -55, 127, -69, 2, -22, 36,
    29, -31, 93, -18, -125, -30, -2, -24, -10, 72, -40, 36, 59, -73, 32, -34,
    16, -27, 77, 125, -74, -40, 72, 10, -6, -24, -62, -3, -127, -51, -29, 56,
    35, 37, -47, 32, -11, 3, -16, -47, -11, 19, 21, -54, 1, -63, 69, 91,
    -50, -45, -6, -105, -51, -51, -28, 115, -35, -19, -40, -9, -22, -111, 34, -50,
    6, 63, 12, -10, 86, 28, -77, 28, -55, 19, 7, 82, -13, 38, -127, 4,
    57, 40, 100, 50, -22, -3, 18, 1, -24, 14, -53, 35, 6, -2, -45, -19,
    -77, -2, 16, -9, 43, 23, -19, 47, -12, 37, -127, -12, -25, 52, -22, -21,
    44, 34, -20, 13, 53, -79, 3, 24, -45, -32, 15, 0, 16, 40, 35, -44,
    15, -127, -6, 33, 10, -13, -15, 6, -30, 39, -28, 20, 47, -30, 9, -14,
};
static const int32_t conv9_bias[64] = {
    10947, -10157, 14902, 370, 20335, 544, 5200, -3187,
    17533, -13334, 3160, 763, 8159, 41911, -1447, 3859,
    3877, 12969, 7501, 2484, 21842, 17356, 29328, 4623,
    41630, -6051, 18385, -2866, 11203, 13606, 16301, 7012,
    10643, 3751, 14523, 28500, 10137, 26979, 5478, 4330,
    3057, 9599, 11443, -8013, 26309, 18146, -1041, 9385,
    15390, 9068, -751, 7246, 13225, 2122, 16772, 4977,
    8938, 17698, 19794, 18031, 11351, 6716, -1348, 5102,
};
static const float conv9_w_scale[64] = {
    2.8739846312e-03f, 4.3804175220e-03f, 4.1390107945e-03f, 3.9417957887e-03f, 1.4098959509e-03f, 4.7570583411e-03f, 2.7372709010e-03f, 4.5509142801e-03f,
    2.2676312365e-03f, 3.6085506435e-03f, 4.7008022666e-03f, 3.5958013032e-03f, 1.8924814649e-03f, 1.2219017372e-03f, 4.3681384996e-03f, 3.1019118614e-03f,
    3.4254477359e-03f, 1.3270956697e-03f, 4.7932961024e-03f, 5.3442777134e-03f, 1.4369541313e-03f, 1.9619129598e-03f, 1.7361692153e-03f, 2.4432321079e-03f,
    1.0113264434e-03f, 4.2099328712e-03f, 2.8913514689e-03f, 7.9823918641e-03f, 2.7346624993e-03f, 3.7530465052e-03f, 3.8622310385e-03f, 6.2369629741e-03f,
    2.5738817640e-03f, 2.5319056585e-03f, 2.8578366619e-03f, 1.6785103362e-03f, 5.0393650308e-03f, 2.2631280590e-03f, 2.2910134867e-03f, 2.2164585534e-03f,
    4.3759220280e-03f, 3.7368074991e-03f, 2.0493641496e-03f, 2.6049432345e-03f, 2.3447046988e-03f, 2.2749474738e-03f, 2.7112690732e-03f, 3.3032922074e-03f,
    2.1542210598e-03f, 5.7731680572e-03f, 2.9364302754e-03f, 1.8435356906e-03f, 4.1192793287e-03f, 5.4471497424e-03f, 3.0779461376e-03f, 5.3876661696e-03f,
    5.2800471894e-03f, 1.3321407605e-03f, 1.8626499223e-03f, 1.8132689875e-03f, 2.1202103235e-03f, 6.0801338404e-03f, 5.2042040043e-03f, 3.5776817240e-03f,
};
static const float conv9_in_scale = 1.9444543868e-02f;
static const uint8_t conv9_in_zp = 0;
static const float conv9_out_scale = 2.3529412225e-02f;
static const uint8_t conv9_out_zp = 0;

/* ---- Conv layer 10: Conv_239 ---- */
/* in=64x8x8 out=64x4x4 k=3x3 s=2 p=1 g=64 depthwise */
static const int8_t conv10_weight[576] PROGMEM = {
    127, 121, 48, 35, 85, 53, -29, -1, 21, 11, 68, 39, 76, 127, 81, 60,
    66, 49, -75, -94, -73, 8, 12, 7, 73, 127, 92, -36, -69, -43, 34, 11,
    2, 85, 127, 77, 109, -35, -85, 127, -24, -89, 96, -6, -71, 18, 42, 17,
    81, 127, 72, 64, 86, 43, -34, -80, -53, -29, -36, -3, 76, 127, 72, -72,
    -123, -68, -83, -127, -90, -33, -107, -100, 60, 127, 110, -15, -1, 9, -44, -90,
    -72, 56, 75, 57, 83, 127, 90, 48, 72, 43, -1, -39, -41, -73, -127, -110,
    -69, -103, -89, 92, 127, 103, 7, 20, 68, -8, 14, 31, -26, -58, -88, -10,
    53, 51, 4, 114, 127, 74, 66, 74, 43, 34, 25, -127, -117, -112, -64, -104,
    -91, -82, -110, -127, -34, -77, -86, 0, 6, 2, 72, 124, 86, 61, 127, 96,
    34, 68, 47, 70, 127, 90, 44, 73, 32, -87, -72, -51, -35, -26, -9, 87,
    127, 95, 54, 75, 52, -15, -36, -11, -89, -127, -74, -20, -52, -68, -34, -108,
    -127, -11, -91, -89, -85, -121, -127, 5, 56, 11, 44, 107, 77, -53, -121, -84,
    -42, -127, -125, -42, -85, -89, 87, 127, 95, -28, -49, -46, -55, -50, -71, -77,
    42, 56, -127, 63, 49, -76, 43, 34, 42, -77, 33, 63, -127, 46, 79, -120,
    55, 34, 39, 5, 95, 127, 74, 56, 108, 78, -98, 64, 127, -59, 21, 67,
    26, -39, -80, -80, -127, -38, 34, 103, 108, 23, 69, 62, -82, -120, -69, -9,
    -37, -17, 91, 127, 91, 107, 123, 86, 30, 39, 28, -70, -127, -70, 67, 127,
    92, 52, 121, 90, -18, 22, 25, 84, 45, -6, 127, 103, 45, 73, 50, 7,
    -41, -29, 0, -77, -49, 32, 51, 73, 127, -56, -59, -41, 56, 127, 83, -6,
    -54, -51, 29, -21, -10, -63, -127, -91, -58, -87, -100, -66, -119, -74, -61, -127,
    -54, -30, -95, -35, 72, 92, 65, 110, 127, 77, 27, 33, -4, -40, -127, -115,
    28, 35, 19, 29, 91, 67, -46, -76, -54, 8, 9, 3, 58, 127, 83, -111,
    -52, 31, -102, 29, 127, -73, 53, 105, 71, 90, 35, 91, 127, 77, 53, 71,
    68, -115, 74, 127, -118, 61, 90, -95, -27, -35, -76, 0, 86, -127, 7, 108,
    -88, 12, 89, -72, -120, -127, -64, -117, -99, -1, -57, -30, -52, 38, 50, -127,
    50, 72, -113, 38, 30, -4, 8, -14, 62, 127, 69, -92, -49, -9, 22, 125,
    127, -15, 55, 70, -51, -84, -72, 45, 38, -109, 51, 58, -127, 29, 27, -52,
    31, 8, -20, 127, 22, -102, 113, 31, -86, 39, 88, 57, 63, 127, 92, 32,
    55, 44, 84, 127, 106, -28, -33, -14, -60, -100, -76, -29, 60, -28, -53, 127,
    -56, -62, 107, -49, -61, -76, -60, -101, -127, -79, -30, -61, -28, -21, -73, -113,
    38, 127, 83, -93, 22, -55, -92, -127, -84, 28, 55, 29, 46, 68, 44, 24,
    39, 6, 78, 127, 60, 60, 88, 53, 60, 57, 3, 74, 127, 76, 23, 95,
    53, -23, -52, 67, -45, -77, 127, -16, -75, 103, 83, 97, 52, 3, -40, -33,
    -63, -127, -87, 31, -25, -35, -44, -125, -94, -76, -127, -111, 92, -9, -84, 118,
    0, -127, 72, 4, -62, -48, -57, -11, 55, 88, 59, 79, 127, 77, 89, 59,
    -74, 75, 113, 111, 24, 61, 127, 47, 76, 47, 63, 127, 80, 14, 47, 38,
};
static const int32_t conv10_bias[64] = {
    -10335, -1114, 89, 527, -775, -5505, -742, 21040,
    900, -4632, 10519, -1765, 347, 2675, 16162, -5043,
    -2827, -609, 5666, 18532, 2320, 19122, 1526, -267,
    190, -8600, 1894, -107, 1671, 1242, -3303, -618,
    316, -932, 12705, 16528, -7264, 2164, -900, 508,
    -3595, -1, -923, 12619, 177, 578, 974, 66,
    5168, -8501, 4541, -1307, 14006, -1225, 3749, -5561,
    -687, -93, 6665, 17684, -1074, 113, 40, -11157,
};
static const float conv10_w_scale[64] = {
    5.0723212771e-03f, 3.6904462613e-03f, 6.1639905907e-03f, 7.0406226441e-03f, 1.0401073843e-02f, 4.1632656939e-03f, 6.9153076038e-03f, 2.7396937367e-03f,
    1.0674864054e-02f, 4.1834549047e-03f, 3.6151141394e-03f, 4.5131160878e-03f, 5.4448521696e-03f, 1.1890506372e-02f, 4.0563605726e-03f, 4.0562604554e-03f,
    4.2445897125e-03f, 1.0117655620e-02f, 5.3437114693e-03f, 3.2829961274e-03f, 9.8299952224e-03f, 5.4845395498e-03f, 1.0885400698e-02f, 8.6043579504e-03f,
    2.2222144529e-02f, 3.8672145456e-03f, 8.3025610074e-03f, 3.6668174434e-03f, 6.2606087886e-03f, 6.1263595708e-03f, 4.5867851004e-03f, 3.1132115982e-03f,
    7.0411344059e-03f, 1.0515906848e-02f, 4.9699135125e-03f, 7.6056011021e-03f, 5.3636459634e-03f, 8.1830453128e-03f, 7.9779969528e-03f, 6.9218426943e-03f,
    3.2416486647e-03f, 5.3050187416e-03f, 8.0547481775e-03f, 5.1256697625e-03f, 6.2840040773e-03f, 7.6669882983e-03f, 6.8256850354e-03f, 8.7526692078e-03f,
    7.5888317078e-03f, 4.2995200492e-03f, 5.2620451897e-03f, 1.5876078978e-02f, 4.2576557025e-03f, 4.9527660012e-03f, 7.5853196904e-03f, 4.1222814471e-03f,
    3.6379888188e-03f, 1.5293526463e-02f, 8.1879841164e-03f, 6.8030441180e-03f, 7.7300495468e-03f, 3.7090391852e-03f, 4.0050172247e-03f, 7.1187089197e-03f,
};
static const float conv10_in_scale = 2.3529412225e-02f;
static const uint8_t conv10_in_zp = 0;
static const float conv10_out_scale = 2.3529412225e-02f;
static const uint8_t conv10_out_zp = 0;

/* ---- Conv layer 11: Conv_241 ---- */
/* in=64x4x4 out=64x4x4 k=1x1 s=1 p=0 g=1 standard */
static const int8_t conv11_weight[4096] PROGMEM = {
    -46, 80, -1, 50, 1, 3, 28, 4, 95, 12, 70, 65, -25, 66, -69, -9,
    20, 55, 27, 31, -55, -127, 32, -32, 38, 30, 40, -71, 57, -16, 52, -43,
    2, 52, -38, 52, 16, 30, 24, -6, -8, 52, 48, 28, -40, 12, 45, 22,
    -27, 13, -3, -48, -46, 1, 33, -15, -13, -33, 42, 71, 12, 44, -39, 50,
    -47, 64, -55, -42, -7, -26, 43, -30, -45, -26, 98, -39, -16, 95, -2, 12,
    -7, -1, 28, -30, -21, -41, 49, 71, 69, -11, -22, -79, 60, 14, 13, -3,
    16, -10, -65, 54, -18, -21, -32, -32, 2, -27, 14, -30, 28, -28, -61, 47,
    1, -127, 47, 55, 19, 41, 12, 67, 16, 87, -37, -29, 37, 19, -70, -6,
    16, 10, -77, -62, -50, 39, -101, -58, 17, 16, -32, -33, -90, 77, -127, 52,
    -107, 41, 65, 4, -38, -50, -27, 18, -127, -81, -2, 1, -102, 31, -55, -83,
    -29, 24, 39, -34, -39, -42, -57, 7, -35, 38, 41, 90, -19, 20, 7, -33,
    29, 54, -8, 72, -37, -16, -123, 66, 18, -24, 61, 101, -65, 75, 11, 6,
    -67, -29, -31, 19, -10, 85, -40, -34, -4, -2, 6, -9, -25, -49, 64, 35,
    -29, 90, 122, 83, 106, 92, -125, -110, -46, 52, 20, 45, -42, -46, 74, 75,
    -12, 42, -127, -30, -11, -21, -11, -118, 97, -33, 37, 39, 60, -120, 12, -77,
    19, -37, 2, -75, -12, -35, 80, 17, 1, -38, 21, 13, -77, -1, 67, 64,
    -30, -42, -115, 27, 111, 12, 51, 13, 109, -32, 48, 52, 58, -7, 19, 70,
    -27, 18, -45, 35, -127, -81, 9, -61, 8, 22, 69, -9, 28, 32, -110, 12,
    -116, -52, 8, 37, -25, -112, -21, 64, 84, 19, 47, 4, -36, 7, -3, 24,
    -92, 49, -18, 32, -46, 25, -34, 13, -3, 7, -2, -17, 66, 3, 38, -70,
    -28, -72, -21, 11, 94, -12, -43, 56, 0, 36, -6, 57, -93, -39, 8, -32,
    2, -101, 3, 41, 127, 27, 26, -50, 11, -37, -117, -43, 57, -59, -44, -34,
    -35, -9, 16, -31, 47, -44, 6, 15, 8, -81, 31, 8, 38, -50, 34, 20,
    -62, 3, 1, -11, 115, -29, -46, 14, -78, -28, -58, 93, 57, 25, -34, 38,
    -33, -37, 63, -45, -33, 38, 8, -6, 1, 80, -55, 34, -12, -39, -80, -14,
    12, -65, -21, -53, 18, 19, 2, 22, 5, -12, -23, -7, -24, 66, 33, 17,
    11, 22, -101, -52, 41, 9, -46, -15, -78, 63, 22, -61, 48, 14, 5, -7,
    107, 8, -17, 60, -17, -1, 47, 63, -63, 22, 7, -127, 10, 7, -25, 29,
    25, -61, -83, 35, 32, 76, -52, -58, 41, -127, -30, 50, -48, -44, -119, -74,
    20, 18, -23, -26, -26, -11, -21, -27, 2, -11, -13, 27, -76, 35, 60, 20,
    -38, 28, 14, -62, -17, -11, 0, 22, -51, -20, 10, 7, -19, -21, 13, 4,
    -39, -104, 49, -27, 34, -8, -43, 33, -10, -3, 50, -23, 22, -61, -1, -14,
    48, -44, -43, -12, -127, -29, -14, 1, -96, -13, 30, -60, -69, -38, 32, 17,
    -19, -34, -2, -29, 58, 31, -34, 40, 6, 28, -71, -17, 33, 6, 3, 0,
    -90, 19, -21, 21, -23, 11, -2, 11, -19, 36, -15, 34, -6, 1, -39, -52,
    -107, 2, 9, 0, -32, 13, 11, 6, -9, 39, 8, -11, 5, -7, -22, -14,
    -50, 3, -37, 34, 20, 58, -65, 39, -3, 18, 38, 53, -73, 10, 80, 49,
    -8, -51, -52, -28, -24, -24, 72, -99, -14, 10, 34, -66, -49, 44, -5, 3,
    32, -76, 28, 85, -86, -29, -2, 38, -64, -45, -127, 0, 34, 28, 25, -27,
    22, 51, -17, -109, 40, -8, -61, -80, 19, -28, 46, -65, -64, -51, 2, 44,
    -44, 33, -67, -5, -69, -35, 64, -68, 4, 68, -67, 57, 33, 127, -31, -95,
    -75, 33, -13, -76, -54, 18, 50, -2, -104, -33, 22, -35, 35, 15, 0, 56,
    19, 75, -87, 0, -32, 20, 116, -11, 35, 13, 84, -42, -38, -24, 12, -26,
    -18, -57, 65, 53, 27, 26, -44, 17, -19, -36, 28, -107, 4, -61, -5, -12,
    -59, -14, 14, -61, 72, 56, -83, -37, 16, 72, 20, 3, -59, -127, -18, 29,
    -21, -113, -47, -31, -2, -38, -50, -41, 61, 109, -85, 81, -1, 27, -6, 62,
    -74, -31, -58, 48, 57, 61, 87, 35, 24, -16, -108, -107, 21, -106, -31, -17,
    0, 44, 58, -5, 127, 90, 80, -10, 46, 0, 38, -31, 24, 36, -76, 68,
    23, -12, -11, 11, -127, 7, -17, -6, 3, -25, 4, 36, 54, -57, 32, 10,
    23, 6, 1, -126, 7, -59, -26, 40, 36, -12, 32, -23, -15, -13, -9, 9,
    -96, 13, -36, 6, 18, -35, 26, 49, 24, 2, -68, -38, -33, 62, 32, -3,
    -108, -22, 12, -35, 9, 42, 20, 31, 0, 16, 3, -42, -37, 35, -6, 8,
    39, 43, 5, -19, 55, -41, -71, -8, -36, 3, 39, -9, 20, 47, -7, 88,
    94, -12, 33, 14, -4, -127, -47, -29, 5, -56, 17, -63, -94, -16, -80, 4,
    24, -73, 1, 46, -28, -22, -2, 4, 45, 66, 50, -56, 9, -2, -99, 76,
    42, 47, 31, -8, -112, -41, -34, -108, -101, -47, -82, -18, 72, 8, 45, -32,
    -51, -12, -4, 67, 10, 25, -7, 18, 34, 18, 44, 52, 26, 4, -39, 24,
    -19, -10, -72, 10, -21, -27, 39, -64, 90, 70, -51, -9, 23, 73, 73, 28,
    -47, 57, -60, 75, 31, 11, -3, -13, 23, 12, -56, 0, 5, 14, 26, -42,
    -71, -127, 37, -5, 29, 12, 48, -49, -20, 25, -12, -34, -39, 43, -25, 11,
    8, -8, 13, 47, 49, 11, 33, -54, -16, -43, 15, -90, -55, -10, 82, -46,
    -19, -16, -27, -28, -5, 0, -79, 14, 47, -110, 31, -52, -88, 42, 0, -88,
    -111, -89, -45, 16, 3, -12, -65, 4, 4, -25, -117, 127, -8, -25, 5, -1,
    -22, 66, -29, -32, -32, 23, 38, 11, -11, 19, 75, -108, -25, -3, -11, 7,
    -42, 3, -2, -40, 24, -6, -24, -17, 127, -53, -27, 30, -6, 58, 29, 20,
    -26, 17, -10, -41, 29, 0, 61, 18, 57, -1, -33, 28, 21, 28, 7, 11,
    -31, -13, 0, 7, 3, -34, 9, -28, 34, -20, -29, -16, 10, 0, 7, -1,
    10, -3, -1, -17, 3, -15, 31, 6, 20, 34, 11, -23, -15, 44, -46, -47,
    -55, -58, -89, -21, 44, 45, 15, 123, -20, -34, -52, 44, -47, 8, -79, 68,
    3, -97, -47, -10, -106, 36, -79, -25, 63, 14, -6, 19, 66, 34, -12, -9,
    -69, 29, 14, 7, 81, -29, 57, 25, 127, 12, -67, 35, -17, -64, -2, 8,
    31, 71, 18, 0, -86, 31, -71, -55, 14, 39, 35, -6, -51, -71, 11, -89,
    -3, -33, -68, -19, 29, 9, 98, -37, 4, 39, 87, -37, 27, 112, -12, -38,
    -32, -16, -18, 29, -87, 12, -31, 127, 71, 74, 70, -62, 68, 1, -26, -28,
    -10, -22, -62, -11, -79, -14, -52, -3, 87, -8, 9, 9, 34, 19, 49, 0,
    -93, 15, 79, 78, -17, -30, 75, -51, -76, 101, -22, -23, 82, 33, -23, -17,
    -92, -98, -90, -23, 72, -48, -84, 46, 44, 41, -34, 71, 60, -8, -10, 27,
    127, -96, -74, -21, -51, -21, -31, -46, 83, -14, 4, 62, 63, 91, 38, 56,
    -78, -61, -122, 32, -4, 24, -98, 1, -33, 24, -118, 63, 32, 21, -39, -40,
    92, 95, 60, -48, 1, -3, 10, 53, -66, -3, -4, -37, 18, 12, -9, 8,
    -14, -7, 45, 32, 104, 13, -54, -32, -66, 13, 54, 85, 15, -91, -92, 69,
    84, -101, 19, -47, -118, -5, -36, 103, 68, 1, 35, -48, 3, -49, -3, 93,
    -52, -9, -36, -100, -62, -77, 49, 40, 48, -8, 47, -21, 42, 22, 39, 27,
    90, -22, 41, 85, -62, -37, 12, 45, -19, 127, -49, 103, 77, -30, 108, -65,
    54, 63, 2, 46, -35, 34, -3, -64, 17, 73, 11, -105, 57, -40, 34, 74,
    -8, 10, -30, 37, 58, -103, -125, 8, -18, -82, -10, 112, -75, -10, -29, -32,
    -64, -41, 3, 38, 5, 54, -16, 0, 2, 41, 51, -23, -35, -16, 80, 64,
    -16, 58, -95, 34, 8, -5, -14, -80, 44, 13, -23, 44, 14, 36, 7, 127,
    -55, 16, -53, 16, 46, -16, 0, -101, 42, -41, 64, 32, -7, 29, 34, 69,
    22, -28, 3, -27, -24, -31, 31, 33, 70, -38, -64, -76, -69, 17, 29, -24,
    -37, -21, 11, 33, 57, -27, -64, -2, 77, -18, 11, -7, -41, 34, 26, 45,
    -47, 11, 51, -55, 74, -42, 28, 13, 9, 14, 127, -46, 35, 63, -7, 28,
    -17, 24, -52, 35, -20, -50, 34, -54, 35, 24, 44, 57, 8, 85, 94, -86,
    34, -90, -88, -15, -78, -34, -60, 15, -20, -37, 46, 51, -64, -30, 81, -59,
    16, 55, -127, 49, 93, 20, 50, 31, -30, -56, 49, 22, 29, 4, 58, -10,
    1, 60, -15, 38, 111, 105, 2, 66, 8, -2, 40, 65, 29, -94, -38, 4,
    -1, -44, 12, 51, 9, 43, 42, -18, -10, -35, -22, -59, -62, -41, 6, -52,
    27, 79, -15, -23, -6, 30, -1, 15, 64, 6, -18, 48, -22, -38, -17, 23,
    -30, -10, -28, -30, -34, 8, -23, -41, -51, 24, 49, 60, -1, 43, 8, 13,
    -127, 2, -68, 53, -31, 9, -19, 11, 25, 68, 45, 8, 81, 34, -25, -31,
    -43, -8, 41, -57, -66, 71, 37, 10, -40, -8, -50, -29, -93, -40, -15, 25,
    112, 91, -25, -8, -19, 37, 92, 55, 50, -13, 14, -52, -53, -38, 74, 79,
    -127, 37, -46, -67, -51, -13, -12, -110, 42, -20, 108, -61, -50, -15, 63, 41,
    -84, 21, 70, -5, 39, 13, -70, 89, 29, -3, 70, 5, 8, 55, 70, -15,
    23, -24, 3, -7, -37, -8, -13, -35, 19, -39, 12, 14, -2, -51, 40, -24,
    1, -34, -11, 5, 58, -45, -44, -4, -4, -18, -42, 1, -2, -6, -127, -2,
    -18, -59, -41, 1, -24, -12, 68, 17, -24, 33, 33, -12, 5, -45, 8, -37,
    83, -18, 22, 26, -27, 15, -14, 25, 17, -13, -11, -45, -23, -4, -17, 31,
    -31, -7, -43, 23, 26, -39, -8, 127, 45, 25, 26, 71, -46, 35, 14, -36,
    55, 52, 56, -15, -93, -18, 38, 20, 54, 47, -19, -104, -16, 29, 67, -9,
    -47, 13, -6, 7, 54, -69, 35, -78, -28, 10, -67, 54, 62, 5, 64, -5,
    20, -12, 84, -41, -78, -17, -45, -25, 66, 47, 14, -11, 4, -65, -1, -74,
    30, -26, 121, -59, 21, -11, -32, -12, 62, -38, 48, 37, -21, 29, 25, -82,
    1, -21, 6, -31, -56, -127, 37, 12, 32, -97, 44, 9, 69, -38, -22, 34,
    -44, -12, -22, -16, 7, 4, -113, 34, 43, -42, 30, -5, -22, 24, -98, -12,
    66, 17, -39, -20, -6, 17, -2, 46, 28, -21, -14, -77, 32, -45, -59, 48,
    -59, 17, 48, 77, 104, -22, -127, -16, -20, -46, -71, 108, 11, 11, -95, -68,
    -49, -22, -28, -83, -98, 70, 29, 28, -39, -23, 37, -9, 13, 14, -125, 36,
    -65, 57, 63, -25, 38, 9, 22, 0, -50, 57, 51, 1, -82, -3, 4, 19,
    18, 92, -23, 83, 16, 34, 8, 54, 13, 37, -4, 51, 26, -68, 10, 71,
    -23, 3, 69, -75, 19, 19, -4, -57, 70, -44, 4, -123, -16, 51, -10, -63,
    -39, -55, 15, -106, 38, -71, 45, 16, -3, 58, 25, 16, -49, 20, -84, -43,
    16, -68, 4, 54, -66, -65, -44, -33, 57, 43, 30, -15, 5, 52, -5, 69,
    -47, 13, -93, -17, -69, -29, -25, 4, 20, -5, 60, 63, 109, -127, 29, -28,
    -127, 25, -13, -1, -96, -32, -12, -8, 12, 5, 43, -24, 1, 17, -21, -14,
    6, -18, -10, 45, 1, -11, -56, 42, -13, 64, -11, 13, -29, -26, 28, -11,
    3, -14, -24, 10, -24, -24, 6, 82, -6, 38, -7, 22, -1, -30, -21, -11,
    -1, 13, -37, -4, -11, -18, 5, -4, -20, -51, -26, 9, 33, 5, -1, 49,
    -124, -5, 80, 0, 37, -12, -25, -30, -52, 50, 16, -32, -31, 67, -11, -55,
    9, -47, -1, 20, -47, -18, 21, 25, -43, 59, -38, 61, -59, 46, 31, -36,
    -4, -44, -77, -72, 29, 61, 38, -37, -127, 20, 36, 1, -64, 0, -61, 38,
    -99, 55, 23, 43, -1, 65, -42, 12, 28, 21, -39, -12, 29, -13, 65, -12,
    -67, -48, -37, -15, 123, -35, -30, 37, 10, -127, -71, 58, -48, -76, -53, 58,
    45, -60, 55, 90, 15, -50, -44, 34, 59, -26, -5, 23, 58, -50, -23, 45,
    -115, -53, -59, -87, 71, 3, 38, -18, 44, -46, 37, -20, -12, 15, 52, -6,
    -50, -76, -28, 31, -45, -21, 55, 23, 22, 47, -23, -41, -36, 57, 26, 14,
    5, -48, -32, 49, 46, -127, 33, 89, -90, 123, 14, 98, 89, 125, 27, -42,
    -101, -41, 37, -25, 5, -16, 2, -63, -81, 49, -101, 51, 108, 47, 29, -87,
    88, 115, 33, 25, -60, -39, 59, 65, 44, 18, -22, 70, -20, -25, -81, 29,
    -60, 77, -25, -3, 2, 20, 14, -21, -57, -40, 20, 17, -26, -22, -46, -3,
    -17, -43, -104, -22, 80, 59, -32, 45, -49, -1, 111, -43, -28, 0, 25, -66,
    33, 12, 48, -13, 29, -51, 33, -89, 58, 74, -110, -17, -11, 52, 39, -68,
    -15, -9, 40, 127, 26, -40, -15, 15, -45, 40, 4, 13, 49, -13, -57, 33,
    -36, 48, 38, -101, 73, 68, 58, 104, -75, 4, -35, -26, 49, 9, 13, 59,
    -16, 58, 64, -72, -12, -5, -7, 25, -17, -45, -69, -32, 15, 113, 23, 19,
    24, -73, 32, -53, 80, 48, 8, -34, -52, 10, 0, -22, -30, -23, 7, 5,
    22, -91, 12, 46, -1, 57, -21, -9, -73, -5, 43, -67, -77, -67, -44, -38,
    -2, -2, -52, -76, 4, 36, 3, -51, -3, -127, 22, -36, -22, 22, 8, 41,
    -54, -28, 52, 15, 127, -38, -29, 31, -88, -61, 13, -33, -28, -75, -42, 33,
    85, 2, -7, -20, 16, -11, 44, -53, 23, -2, -36, -2, -41, -40, 35, -8,
    -101, 0, 26, 57, 27, 2, -37, 14, -56, 93, 11, 18, -14, 27, -75, 117,
    37, -40, -75, 15, -43, -10, 6, -18, -49, -16, 10, 9, 91, -12, -25, -14,
    -6, -9, 61, 30, 33, 53, 6, 80, -38, -127, 8, 32, -64, 49, -59, -8,
    35, 2, -46, -44, -30, -40, -7, -4, 61, -48, -6, -34, -8, -44, -53, 4,
    -84, -6, 51, -49, 21, 6, -22, 60, 7, -60, 0, 63, -8, 50, -16, 16,
    55, 91, 11, -27, 19, -4, -28, -25, 5, 9, 13, 41, 22, 64, -70, -80,
    30, 12, 94, 11, 29, 80, 43, 24, 66, -27, -127, -4, -42, -13, -28, -115,
    16, 7, -26, 10, -14, -37, -126, -24, 55, -13, 105, 32, -30, 75, 24, 5,
    -1, 77, -83, 2, -27, 43, 78, 23, -60, 14, -48, -6, 11, 57, 13, 19,
    32, 19, 100, -56, -70, -104, 74, 20, 10, 29, -9, -1, -26, 19, 60, -31,
    -28, -23, 49, -17, -110, -25, 19, 27, 33, -97, 35, -50, -21, 60, -104, -33,
    11, -46, 64, -16, 20, -104, 55, -72, -127, -25, -13, -16, -1, 9, 74, -47,
    28, -9, -27, -64, 42, 19, 44, -35, 60, -59, -1, -8, -27, -45, 54, -53,
    -21, -78, -2, 23, -35, -38, 68, -22, 60, -95, 54, 56, -37, 17, -36, -84,
    -21, -63, -49, -85, 29, 32, 39, 19, -16, 16, 30, -8, -73, -42, 24, 26,
    11, -39, 26, -36, -17, -16, -6, -12, 33, 53, 47, 46, 15, -72, -26, -40,
    23, 0, -24, 32, 30, 93, 65, 17, 27, -11, -64, 107, 6, -20, 31, -13,
    -33, -1, 20, 3, -24, -2, 76, -25, -43, 26, -22, 37, 52, -39, -127, 17,
    38, 11, 34, 93, 44, 45, 31, 40, -5, -66, -18, 21, 0, -11, -39, -102,
    -47, -23, 30, 86, -30, 30, 17, -32, -30, -67, 25, 78, 31, 20, -51, -20,
    42, 121, 21, 91, 45, 117, 18, -9, 15, -40, 20, 8, 0, 127, 27, -52,
    -70, -57, -107, 29, 0, 26, -12, 84, 27, 15, -62, -22, -2, -40, 32, 51,
    -1, 66, -2, -20, -44, 48, -14, -14, -36, 6, 7, 33, -20, -13, -58, -9,
    -29, -40, 33, 110, 113, 58, -64, 52, 29, 35, 4, 55, 92, 122, -35, -40,
    -77, 16, -127, -37, 10, 53, 70, -69, 31, -21, -61, 78, -76, 36, -31, -10,
    8, -22, 18, 9, -7, -28, 83, 54, 48, 12, -77, 20, -18, 92, -14, -49,
    15, 41, -29, -16, 27, -5, 1, -62, -49, 15, 40, 23, -2, -8, -60, 2,
    -106, 26, -37, -38, -92, -38, -26, 41, 30, 43, -11, 33, -58, -1, -48, 18,
    -47, 19, -17, -103, 28, -71, -26, 19, -59, 5, 39, -6, -83, -10, -27, -14,
    26, -54, 72, 51, -4, -127, 39, -51, 94, 45, -25, -21, -14, -23, 42, 9,
    6, -18, 46, -18, -44, -38, -2, -12, -47, -16, 127, 16, 29, -12, -80, 29,
    27, -4, 60, -72, -27, -81, 36, -10, 24, -9, 9, -13, 60, -38, -90, -27,
    -8, 26, -64, 36, 89, -70, 69, -46, -37, 45, 26, -40, -25, -25, 24, 59,
    51, 4, -3, -124, -38, 38, 24, 90, 23, -82, 9, 38, -14, 18, 56, 43,
    0, 22, -34, 48, -58, 33, -2, -91, 39, 57, -2, 0, 4, -14, 16, 32,
    10, 36, 2, 25, 50, 31, 16, 76, 59, -37, 20, 13, -15, -104, 21, 11,
    -46, 26, -6, -28, -42, -20, 59, -127, -66, -13, -12, -70, 23, -14, -7, 8,
    -58, 47, -14, -21, -22, -22, 25, -21, -15, 41, -11, -5, 2, -6, 34, -36,
    18, -38, 20, 46, -22, -12, -57, 31, 48, 12, -36, -40, -13, -33, 9, 2,
    -3, -39, 57, 38, 30, -4, 116, 25, -6, -20, 82, -63, 38, -16, 26, 3,
    -27, -38, -36, -20, 17, -53, 104, 68, -30, -4, -3, 28, 52, 127, 8, -53,
    61, 31, -34, 33, -35, 58, -118, -32, -41, 15, 30, -23, 32, -44, 47, -27,
    -30, -60, 55, -6, 40, 87, -74, -117, 28, 32, -23, -15, 1, -1, 43, 77,
    -85, 22, -115, -40, -122, -32, 53, -32, 28, 53, 0, 13, 16, 90, -3, 39,
    -10, 34, -60, -43, -6, 54, 7, 8, -27, -32, -53, 76, 44, -7, -13, -48,
    28, -63, 62, -71, 24, -59, -1, 11, -69, 27, 48, -127, 9, -12, 68, 54,
    58, -88, -20, 0, 57, -20, -19, 38, 0, 10, -38, -45, 44, 127, -86, -31,
    54, 28, -81, -23, 20, 34, -101, 13, 52, 57, 15, 16, -15, -42, 9, 32,
    -27, 23, -22, 3, -70, -19, 63, -4, 61, 6, -51, -6, 31, -3, -13, 46,
    24, -13, -8, -24, 10, 6, 41, -43, 23, 40, 52, -1, 90, 64, 56, -13,
    -14, 49, 5, 34, 1, -33, -25, -127, 46, -32, -5, 17, 18, -41, -17, -18,
    -26, 25, -9, -24, -7, -24, 2, 45, 56, -16, 24, 21, 23, 12, -19, 44,
    -42, 39, -59, 13, 62, 7, -19, -51, -4, -11, 23, -27, 10, 22, 29, 23,
    -22, 32, 19, -33, -46, -14, -5, 4, -9, 8, 1, -61, 41, -32, 24, 7,
    45, 28, 15, 42, 11, -16, 19, 26, -52, 65, -5, 37, 12, 26, -5, 39,
    -12, -127, -36, 100, -34, -16, 59, 44, -2, 14, -45, -1, 13, -11, 25, 1,
    0, -9, 34, 37, 4, 25, -1, -16, -8, 11, 19, 22, -9, 23, -15, 29,
    -44, -16, 7, 11, -35, 38, 8, 9, 36, 19, 18, 7, -13, 12, -17, -7,
    -15, -65, -48, -65, -127, 19, -50, 94, -1, 5, 64, 45, -104, 78, 55, 3,
    61, -98, 89, 61, -21, -2, -24, -55, 20, 13, 16, -32, 32, 12, 41, -16,
    75, 7, -23, 3, -80, 7, -2, -29, 34, -66, -38, 44, 31, -48, 71, -66,
    -3, -45, -62, -106, 35, -37, 16, 44, 76, -63, -95, 64, -115, 23, -110, 90,
    7, 30, -6, -14, 0, 35, -12, 17, 58, 42, 85, -61, -127, 15, -121, -43,
    84, 1, 71, 20, 39, 89, 68, 42, 14, -99, 7, 51, -7, 5, 15, 106,
    41, 42, 100, -6, -15, 78, 4, -38, 23, 13, 91, -72, 26, 7, -63, 3,
    -78, -49, -76, 89, -26, -86, 59, 82, -31, 125, -68, 20, -5, 41, -98, -98,
    23, 22, 72, 92, 66, -127, -19, -29, -19, -90, -90, -23, 48, 32, 70, -30,
    -44, 55, 99, -50, 125, -9, -92, -29, 88, -43, -15, 57, 17, -95, 31, 53,
    -74, 61, 36, 3, 98, -98, 60, 72, 1, 13, 25, -97, -72, 61, 107, 3,
    101, 117, 36, -46, -22, 9, -7, 48, 32, -10, -124, -44, -76, -43, -24, -28,
    -18, -62, -11, 16, 8, 28, 67, 1, 9, 24, -3, -67, 66, 100, -36, 15,
    2, 14, -5, -27, 4, -24, 62, 17, 54, -13, 43, 29, 3, 42, 17, 47,
    25, -3, -59, 36, -60, -77, 95, 80, -40, 38, -86, 98, -26, -39, 35, -45,
    -44, -71, -15, -21, -18, 22, 6, 32, 42, 23, -66, -17, -127, -35, 30, 31,
    19, -14, 19, -49, -37, 0, 42, 43, -2, 5, 72, -54, -38, -111, 63, 33,
    9, -1, -65, 71, 19, 12, -9, 8, -24, 40, -14, -73, -29, -36, 3, -10,
    -56, -14, -38, 8, 127, -30, -53, -60, 49, -81, -40, -70, 10, -35, 98, -56,
    -21, -47, 31, -8, 43, -6, -21, -56, -20, -7, -49, -9, -36, -51, -37, 35,
    45, 61, -21, -10, -29, -29, 17, -6, 68, 27, 16, -40, 20, -58, -1, -13,
    -88, 51, 13, 29, -18, -21, 12, -51, -66, -36, 5, 33, 2, 54, 20, 5,
    46, -9, -21, 31, -22, -87, 51, 9, 62, -38, 17, 6, -25, 21, 29, -38,
    29, -10, 26, -50, 12, 19, -27, 1, 13, -94, -103, -54, 33, 0, -16, 127,
    -18, 29, 23, 92, -41, 95, 21, 26, -23, 20, 8, -34, 16, -43, 9, 57,
    -12, -2, -89, -3, 36, -30, -61, 19, -37, 27, 43, -74, 26, 37, 22, -79,
    -20, -22, 28, 11, 32, -1, -3, -1, -17, -16, -79, -30, 19, 79, 14, 37,
    89, -37, 47, -24, 16, 10, -86, -32, -9, -36, 29, 77, -14, -45, -127, -33,
    -6, -35, 11, 17, 5, -75, 47, 6, -3, 76, 7, -34, -56, 35, 73, 2,
    -15, 22, 20, 53, 50, 69, 33, 24, 9, 30, -8, -25, 27, -7, -41, 30,
    -40, 22, -32, -29, 18, 30, 17, -59, -26, -65, -16, 87, 26, -43, -15, -12,
    27, -21, -8, 34, 36, -35, 127, -73, -6, 25, -21, -33, -34, -10, 0, 53,
    9, 32, 64, 48, 21, 92, -3, -6, -116, -4, -8, 7, -23, -16, -17, -22,
    -27, 108, -33, 72, -84, -52, 6, 7, 19, -12, -38, 1, -127, -27, -12, 86,
    -33, 68, 62, 38, 51, -80, 6, -83, 56, -52, 70, -10, 56, 18, -28, -21,
    -50, 33, 12, -26, 62, 22, 43, 47, -74, -42, 40, -3, 27, 35, -8, 41,
    44, -38, 3, 0, 89, -4, 43, -40, 40, -36, 68, 29, -42, -24, -127, 0,
    75, 25, -14, 34, -42, -67, -18, -1, 126, 24, -27, -2, 36, 14, 5, 50,
    -27, 31, -68, -56, 47, -69, 35, -5, -30, 34, -108, 26, 16, 21, 18, 51,
    47, -76, -41, -60, -4, -6, 11, -35, -39, 58, -16, -33, 49, 93, 44, 9,
    28, -2, -34, 74, 58, 90, -9, 95, 20, -55, 34, -65, -9, -13, 22, -49,
    25, 20, -17, -77, 28, 30, -35, -68, -29, -106, 43, 16, -14, -55, 56, 40,
    45, 19, -44, -22, 30, -5, 67, 127, -36, -21, 62, 12, 69, -12, 1, -6,
    63, -74, -20, -47, -41, 62, -16, 33, -116, -61, 24, 22, 24, -40, 38, 15,
    -85, 13, -25, -22, -65, 62, 59, 41, 30, -32, -35, -38, 4, 72, 70, -6,
    -6, 23, 51, -96, 75, -17, 26, -12, 8, 76, -19, -30, 21, 51, 47, 26,
    -92, 21, 24, 98, -27, -6, -71, -103, -4, -3, -35, -91, -72, -38, 47, 53,
    -66, 25, 56, -80, 58, -11, 8, 56, 5, -127, 45, 82, 72, -70, -14, 16,
};
static const int32_t conv11_bias[64] = {
    -18293, 484, 14641, -14913, 1617, 9625, 2558, 21833,
    14099, 3616, -1376, -10228, 3324, 9947, -8624, 18294,
    -6559, 5102, -7046, -7974, -7411, -6796, -10257, -14712,
    8168, -3772, 7584, -5055, 7547, -996, 14064, 2902,
    9113, 7066, -9821, -10426, 5457, 9771, 2451, -2909,
    10150, 489, -9009, -9472, 16331, -2030, 976, -7983,
    2357, -11575, 5269, -6547, -1011, -9446, -13236, -5680,
    11582, 1817, -4607, -11302, -5482, 4235, -4133, -5624,
};
static const float conv11_w_scale[64] = {
    3.3575741109e-03f, 4.4059637003e-03f, 2.9880406801e-03f, 3.0069744680e-03f, 2.9680992011e-03f, 3.4533387516e-03f, 3.7316326052e-03f, 3.5012247972e-03f,
    3.5073941108e-03f, 3.6511661019e-03f, 3.3181395847e-03f, 2.6137568057e-03f, 3.8699333090e-03f, 3.5198424011e-03f, 3.4817326814e-03f, 3.7289182656e-03f,
    5.5183214135e-03f, 3.7597015034e-03f, 3.4289362375e-03f, 2.7450025082e-03f, 2.5829528458e-03f, 3.0327467248e-03f, 2.9528916348e-03f, 2.6524499990e-03f,
    3.9457459934e-03f, 3.3415118232e-03f, 5.1723732613e-03f, 3.4104664810e-03f, 3.7610277068e-03f, 3.1461517792e-03f, 3.3920190763e-03f, 5.8947098441e-03f,
    4.1976617649e-03f, 3.4166250844e-03f, 2.7839464601e-03f, 4.0697068907e-03f, 3.5620317794e-03f, 4.2350487784e-03f, 4.5301867649e-03f, 2.7305618860e-03f,
    3.5418942571e-03f, 3.4462816548e-03f, 3.5801420454e-03f, 2.5867638178e-03f, 3.9147729985e-03f, 4.4406866655e-03f, 5.0331898965e-03f, 4.2566498742e-03f,
    3.4259811509e-03f, 4.5028445311e-03f, 6.0370038263e-03f, 4.9065193161e-03f, 3.4725838341e-03f, 3.0260661151e-03f, 2.9245493934e-03f, 3.9189592935e-03f,
    3.6402223632e-03f, 4.3391399086e-03f, 3.1810021028e-03f, 5.0515914336e-03f, 3.7353120279e-03f, 3.8636387326e-03f, 3.6713159643e-03f, 3.4963742364e-03f,
};
static const float conv11_in_scale = 2.3529412225e-02f;
static const uint8_t conv11_in_zp = 0;
static const float conv11_out_scale = 1.9599536434e-02f;
static const uint8_t conv11_out_zp = 0;

/* ---- Conv layer 12: Conv_243 ---- */
/* in=64x4x4 out=128x4x4 k=1x1 s=1 p=0 g=1 standard */
static const int8_t conv12_weight[8192] PROGMEM = {
    53, 76, 58, 127, -38, 44, -77, 46, 5, 31, -83, 126, 24, -34, 16, -70,
    30, -78, -9, -24, -5, -34, 51, 35, 48, -16, -59, 0, -49, -73, 35, 57,
    48, 22, 37, 50, 62, 22, -82, 5, 6, -15, 73, -46, 7, 58, -47, 14,
    -90, -28, -25, 81, -23, 0, 94, -53, -32, 36, 30, -16, 43, -18, 12, 86,
    70, 70, -25, -112, 37, -20, 47, -66, -53, -6, 59, 111, -41, 5, -46, -41,
    -18, -29, 66, -52, 0, -65, -55, -70, -32, -7, 45, -19, 20, -29, -32, 53,
    71, 18, -62, 68, -50, 41, -33, -21, -39, -25, 39, -19, -40, 127, 86, 84,
    -2, 75, 50, 4, -15, -8, 53, -52, -53, 35, -25, -6, -47, 17, -36, 62,
    -25, 8, 17, -94, 20, -27, 8, 10, 21, -18, -27, -13, -127, -31, -15, -45,
    -49, 45, 50, -68, -35, 81, -36, -38, -66, -6, 36, 72, -5, -13, -61, 22,
    103, 57, 57, 3, -63, 36, 39, 4, 49, 80, -73, 70, 72, -20, 5, -100,
    -56, 31, -6, 15, -73, 19, 55, -17, -1, 50, -2, 16, 62, 53, 24, -24,
    -31, 43, 115, -83, -40, 56, -48, 0, -27, -72, 59, -30, -97, -91, -30, -28,
    84, -9, -18, -30, 25, 45, -36, -99, -60, 33, 43, 46, 31, -6, -33, 23,
    42, 20, 45, 26, -82, 5, -2, 48, -16, 11, -81, 127, 37, 69, -70, 12,
    -71, -64, 9, -27, -8, 14, -11, 9, 19, -90, 34, -14, 77, -18, 27, -1,
    24, 8, -80, -102, -86, -100, -1, 73, -54, -81, -62, 28, 51, -40, -33, 13,
    68, -30, 9, -127, 57, -19, -42, 69, 110, -82, -89, -61, 54, -67, -111, -22,
    113, 5, 109, 15, -74, -85, 67, 30, 11, 86, 7, 9, 122, -55, 98, 82,
    42, 126, 81, -39, -60, -113, 36, 44, 67, 27, -76, 41, 55, 15, 46, 1,
    88, 2, 100, 41, 17, -54, 39, -45, 116, -56, -79, -85, -16, 7, 53, 48,
    -20, -105, -64, 23, 87, -48, 80, 80, 34, -46, 59, 61, -54, 81, 15, -38,
    27, 30, -124, -41, 24, -14, -59, -19, 21, -95, 36, -39, -10, -46, 32, 35,
    33, 20, 51, 1, 7, -127, -109, -22, -104, -64, 1, 61, -3, -8, 62, 56,
    61, 28, 45, 44, -16, 12, 11, 8, 47, -46, -11, -64, 11, 5, -40, -35,
    44, -4, 7, -15, -2, -23, 10, -4, -5, 39, 37, 19, 44, 81, 36, -57,
    77, 23, -127, -63, 73, 14, 61, -12, 20, -15, 8, 5, 28, -8, 71, -53,
    21, -94, 38, 25, 23, 48, 23, 60, 28, -48, -75, 49, 5, -26, -54, -58,
    39, -98, -1, 44, 41, 74, -49, -42, -12, -14, -2, 13, 25, -127, 23, 7,
    39, 24, 63, -24, 47, -55, 36, 97, 29, 30, 87, 81, -31, -46, -42, 22,
    24, -24, 51, 53, 22, 36, 15, -4, -89, 52, -12, -19, 15, -17, -48, 65,
    -55, 85, -40, -34, -14, -50, -1, 3, -75, -33, -57, 1, 25, -20, 17, -10,
    15, -74, -57, 110, 0, -67, -45, -40, 21, 21, -20, 8, -45, 14, 36, 7,
    102, 120, -33, -63, 91, -23, 84, -91, -30, 17, 113, -127, -69, -45, 33, 28,
    -11, 88, -43, -57, -37, 38, 52, -60, -37, 17, 102, -78, 69, -27, -58, -29,
    52, 51, 5, 69, -63, -58, -112, -9, -11, -23, -11, -97, 83, 70, 94, -49,
    83, -24, 30, 26, -103, 79, -65, 68, -38, 67, -66, -6, -56, -95, 77, -63,
    2, 23, 15, -84, -13, 51, -127, -31, -62, 36, 6, -37, 17, -3, 8, 49,
    41, -1, -10, 24, -127, -27, 50, 14, 108, 35, -6, -40, 39, -55, -15, -60,
    98, 61, -91, 51, -60, -126, 25, 11, -20, -21, 43, -6, 31, -6, 60, 19,
    -1, 5, 63, 43, 14, -52, -13, 52, 61, -43, 64, -62, 26, 78, -50, -46,
    7, -28, -112, 1, -68, -12, -23, -42, -8, -10, -11, -26, 127, 42, 2, -60,
    -50, 9, -2, -5, -45, -86, -15, 7, 43, -10, 36, 67, 107, -44, 39, -76,
    36, 57, 54, -69, 21, 28, -46, 38, -10, 67, 49, 52, 8, -97, -53, -13,
    -41, 29, -87, -31, -2, 63, 93, -48, -88, -1, -22, -15, -93, 41, -14, 116,
    -33, -99, 31, 4, 97, -15, -27, -26, -51, -21, -34, -24, -23, 1, 19, 95,
    76, -48, -67, 37, -72, -65, -26, -55, -62, 9, -63, 5, 63, 116, 26, 57,
    56, 81, -61, 32, -46, -12, 127, 49, 31, -85, -82, -29, -75, 60, 84, -50,
    0, 12, -9, 45, -125, -19, -40, -46, -39, 102, 127, -22, 21, -16, 11, 73,
    19, 79, 31, -12, -40, -53, -28, 36, 72, 40, 28, -117, -25, -47, 11, -31,
    78, -71, 13, 74, 27, 57, -55, 93, -62, -34, -40, 3, -2, 51, -33, 92,
    -77, 50, 58, -6, -31, 16, 95, -26, -9, 14, -25, 29, 58, -55, 91, 63,
    119, 9, 18, 127, 18, 70, 16, 18, 103, -63, -124, 116, 4, 2, 50, -49,
    -58, -70, -45, -57, -13, 16, 55, 18, 39, 70, 75, -43, 42, 45, 69, 14,
    -49, 23, 16, -3, 39, -4, -8, -13, 89, -112, -59, -74, -20, 45, -50, 42,
    105, -14, -28, 52, -47, 91, 9, -29, -27, -57, -45, 43, 58, -28, -25, 53,
    63, -87, -48, 1, -60, -32, -20, -1, -15, 67, 46, -34, 85, -19, 66, -87,
    -12, -14, -55, -68, 73, 82, 21, 37, 127, -53, -11, 5, -1, -25, -72, 19,
    2, 26, 17, -30, -45, -49, -30, 19, 51, -13, 18, -34, -65, 75, 18, 43,
    33, -5, -30, -40, 50, -48, 4, 27, -63, -32, 21, -14, 12, -33, -42, 4,
    -26, -86, -16, -32, 57, 0, 44, 93, 23, 30, 92, 7, 127, -31, -4, -42,
    15, 37, -91, 34, -27, 2, -49, 27, 8, 31, -1, 10, 44, -23, -78, -42,
    9, 9, -2, -8, -43, 26, -3, 74, 7, 19, -22, -59, -68, -48, 37, 3,
    -64, -32, -66, -16, -24, -27, 9, -2, -62, -50, -101, -6, -22, 28, -7, -17,
    -6, -57, -50, 36, 11, 50, -61, -16, 0, -61, 2, -50, -35, 38, 76, 6,
    17, 1, 36, -59, 64, -7, 24, -63, 18, -16, 1, -40, -13, 5, -24, 100,
    127, 15, 15, 38, -4, -34, -7, -6, -3, 3, -37, 38, -16, 35, -44, 13,
    68, 2, 21, 25, 26, 2, 52, 59, 33, 18, -24, -23, -40, 6, 88, -53,
    43, -71, 70, -78, -81, 48, -10, 32, 0, -56, -18, -10, -24, -59, -20, 15,
    33, -9, 65, -102, -49, -21, -36, 68, -60, 86, -66, 60, 9, -67, 101, 20,
    94, 127, 90, -22, -41, 9, 46, 106, 32, 18, -51, 43, -48, -13, -110, 26,
    -44, 118, -103, -25, -83, -52, -9, 9, 51, -45, -122, -32, 7, 4, 21, 49,
    40, -39, -7, 52, -27, 14, 51, -37, -5, -30, -50, 77, 25, -19, -35, -127,
    25, -38, 85, -70, -45, 30, -35, -51, -119, 65, 30, -44, -21, 45, -19, -35,
    25, 88, -47, -16, -14, -118, 84, -31, 59, -69, -116, 44, 90, 12, 16, -25,
    9, -8, 31, 32, -101, -51, -44, -56, 36, -14, -19, 62, 31, 13, -52, 8,
    -20, -118, -5, 52, 75, 62, -114, -127, 88, 34, 17, -86, 77, -84, -1, 69,
    59, 54, 18, 1, 24, -25, 87, -114, -52, 111, -122, -25, -13, -60, 22, -35,
    -11, 35, 19, -12, -46, -76, 97, -22, 31, -5, 53, 73, -19, 63, 3, -76,
    40, -33, -63, 36, -8, 6, -11, 108, -40, -40, -107, 100, 60, 18, 50, 22,
    -106, -47, 26, -12, -24, -46, 52, -37, 18, -59, -41, -21, -80, -41, 16, 35,
    37, -17, -15, 124, 58, 127, -8, -33, 84, 11, -107, 66, -5, 25, 12, 9,
    -23, -81, -1, 61, -82, -59, 30, 7, 32, -70, -13, -37, -61, 13, 38, 64,
    -18, -46, 3, -81, 30, 33, 66, -17, 28, -58, 70, 58, -5, -38, -36, -2,
    28, -12, -15, 38, 17, 9, -13, 19, -23, -67, -14, 97, 77, -14, 82, 21,
    17, 0, 21, -8, 26, 10, 17, 29, -39, -92, -3, 32, -8, -38, 31, 22,
    16, -24, 55, -62, -1, -16, -9, -14, -31, -26, -40, 10, 29, -39, -19, 78,
    50, -33, -5, 7, -25, -60, -127, 23, 25, -26, 79, 15, -12, -7, -18, -13,
    -1, 36, -81, -27, 39, 22, 6, 50, 105, 36, 47, -57, -54, 15, -92, -66,
    40, 61, 41, 63, 16, 19, 47, 26, -19, 26, 14, -10, -29, 127, 83, 105,
    54, -35, 31, 21, 11, 96, -19, -47, 21, -107, -83, -19, 56, 42, 97, -33,
    -78, 84, -51, 22, -41, 38, 30, -11, -19, -32, -43, 71, 49, -94, 14, 11,
    21, 35, -14, -31, -19, -18, -13, 83, 69, 49, 44, -11, 85, -3, -34, 70,
    24, 5, 1, 6, 1, -13, -15, 71, 30, 27, -52, -74, -27, 7, 39, -59,
    52, -37, -31, 5, 55, 37, -33, 42, -55, -2, 14, 28, 37, 41, 94, 28,
    -127, 5, 33, -4, -27, -16, 16, -35, 33, 9, -30, 77, -38, -9, -7, 85,
    -23, -32, 5, 59, 82, 39, 70, -39, 27, -36, -23, 103, 33, -7, 84, 38,
    -7, 6, -65, -27, -27, -65, 106, -37, 20, -29, 96, 43, -88, -50, 1, 12,
    -1, 38, -127, -53, 54, -4, 17, -68, 118, -116, 100, 37, -21, -11, -12, 13,
    81, -34, -28, 43, 46, 57, -47, 28, -52, -19, -69, 36, 65, -22, -8, 24,
    23, -58, 7, 86, 38, -15, 2, -40, 1, 15, -27, 20, 10, -45, 34, 30,
    67, 58, 69, -49, 1, 32, 24, -29, -23, 40, -28, -3, 9, -26, 4, 5,
    43, -18, 5, 5, -54, 48, 32, 5, -53, 3, -17, 7, 9, -66, -42, -15,
    14, 40, -127, 6, -29, -36, 2, 28, -39, -31, -51, 40, 29, 30, 46, 50,
    -8, 29, 8, -33, 53, 22, -4, 42, -47, 72, -31, -25, -5, 28, 11, -26,
    -83, 30, -7, 50, 63, 94, -21, -73, 66, 35, 32, 27, -22, 1, 13, 56,
    -54, 23, -34, 31, -41, 8, -85, 77, -45, 19, 39, 15, -17, 69, 64, -10,
    38, -11, -127, 73, -42, 15, 19, -11, -70, -87, -9, -24, 31, 27, -19, 100,
    103, -22, -16, -81, 15, 35, -7, -16, 26, -29, -30, 78, -55, -51, 20, 38,
    19, -53, 36, 1, -95, -44, -9, -33, -66, 20, 51, -10, -4, 54, 8, -8,
    1, -3, -76, 20, 15, 63, -40, -30, -60, -18, 31, -69, 18, 43, 52, 59,
    21, 51, -32, 9, -2, -21, -4, -50, -25, 42, 45, -46, -11, 63, 22, 127,
    27, 28, 5, 69, 46, 5, -36, 4, 104, -51, 13, -86, 31, 17, -53, -36,
    -122, 13, -22, -25, 42, -90, 64, 3, -56, 32, -127, -1, 0, 74, 15, 15,
    23, 15, -93, 42, -94, 45, -49, -87, -32, 52, 28, 41, 46, 8, 110, -6,
    -94, 30, 58, 41, 3, 31, -37, -50, -28, 6, -25, 112, -4, -70, -27, -1,
    -37, -30, 14, 2, 7, 0, 42, -18, 30, -12, 20, 28, -75, 28, -20, 48,
    -46, 5, -84, -6, 127, -22, 32, -12, -32, 10, -20, 63, -35, 8, -31, 66,
    -26, 19, -9, 60, -38, 5, -35, -34, -22, 38, 74, -6, -20, -19, 0, 32,
    -88, -1, 5, -28, 20, -8, -64, 3, -40, -16, -1, 41, 35, 26, -21, -11,
    1, 32, -55, -64, -41, -10, 54, -6, 97, -53, -19, 97, -31, 9, -7, -3,
    55, -84, 54, 99, 5, -5, -58, -19, 2, 4, -60, 39, 82, 7, 75, -32,
    66, 26, 62, -11, -43, 57, 58, -31, -31, 75, -4, 127, 35, -31, -28, 11,
    -33, 12, -59, 24, 1, 45, 33, 10, -5, -61, 11, -63, 0, -41, 107, 50,
    112, 22, 124, 15, -89, 31, -75, 24, -54, -73, -25, 22, 5, 10, 65, 34,
    18, -71, -127, 11, -1, 31, 91, -5, 72, -103, 78, 109, -28, -45, -76, -68,
    -14, 76, -41, 52, 32, -20, 72, -85, -26, -125, 126, -26, -36, -14, -28, -46,
    94, -31, 43, 77, 62, -13, 19, -88, -13, 16, 9, -84, 20, -5, 66, -4,
    10, 23, -46, -43, 45, -7, -59, 101, 10, -47, 100, 125, -104, 2, 16, -3,
    -5, 52, 42, 4, -43, 33, -79, 47, 7, -124, 46, 13, -37, 17, 24, -85,
    -11, -127, -6, -106, 44, 50, 6, 64, -82, 22, -68, 6, 55, 100, 37, 72,
    -5, -43, -10, 4, -64, 4, 9, -10, -38, 44, 61, -59, -110, -12, -68, 58,
    127, 9, -50, -24, -8, -7, -113, -111, 53, -45, -21, -1, -14, -2, -24, -15,
    -6, 41, 56, 48, 23, -40, 8, 107, -79, -17, 110, -57, 88, 15, -5, -6,
    5, -35, -56, 53, 13, 52, 57, 64, -62, -38, -10, -31, 51, 41, -57, -56,
    -33, 19, 104, -16, 37, 91, 99, -17, 23, -12, -77, -119, 61, -27, -60, -35,
    25, 11, 17, 3, 53, 35, 67, -23, 12, -21, 75, -26, -42, 63, -7, -12,
    -18, -15, 19, 75, -49, -52, 63, -87, -38, -18, -66, 12, -57, 79, 6, 65,
    7, -33, -91, 64, -59, 47, 3, -93, -86, -35, 36, -35, 58, 127, 24, -40,
    4, 24, -29, -23, -43, 101, 8, -48, -41, -45, -15, -46, -50, -70, 59, -105,
    35, -40, -61, -29, -66, -59, -37, 35, -62, -38, 74, -24, 37, 67, 73, -24,
    -57, 51, -37, 20, 15, 116, 46, -53, 50, 34, 44, 127, 41, -38, -86, -18,
    -7, 34, 2, -43, -45, 46, -15, -50, 23, 4, 42, 24, -49, 33, 15, -80,
    -22, -7, -9, 55, -100, -5, -92, -23, 23, 49, 42, -7, 68, 48, 17, -28,
    117, -68, 0, 25, 44, 10, -19, -23, -53, -24, -48, 50, -37, -59, -1, 59,
    20, 22, 31, 52, -67, 70, 46, -29, 39, 8, -14, 94, -85, -81, 1, -13,
    57, -22, -22, -85, 127, 69, 19, -29, -33, -77, 23, -36, -9, 41, -16, 20,
    0, 23, 9, 74, -31, 2, 49, -71, 5, -12, 31, -25, -10, 86, 84, 34,
    -87, 77, 48, 30, -45, 7, 101, 19, 35, -9, 87, -75, -35, -6, 32, -1,
    60, 57, 94, 127, 29, -41, 100, -49, 72, -32, 53, 32, -74, 12, 5, -11,
    -35, -42, 4, -5, 64, -18, -57, -46, -5, -85, -109, -34, -9, 28, 89, -10,
    95, -11, -28, -86, -127, 1, 37, 33, 12, -33, 1, 123, -5, 13, 59, -49,
    -8, -49, 64, 12, 66, -13, -127, -105, -71, 25, 23, 33, 6, -30, 11, 69,
    81, 48, 21, -41, 80, -37, 63, -80, -77, -14, 29, 24, 28, -19, 50, 15,
    -32, 37, 13, -6, -61, -78, 42, -35, -82, 92, 72, 30, 9, 2, -33, 7,
    27, -13, -48, -39, 6, -64, 46, 23, -19, -53, -45, -47, 1, 49, 51, 54,
    106, -8, -97, -122, -68, -70, 45, 36, -48, 127, 74, -33, -42, 4, 21, -97,
    -36, -45, 30, -77, 112, 71, -52, 4, 84, -82, -11, -76, -10, -43, 56, 50,
    39, -41, -24, 107, -46, 65, -91, 107, 41, -20, -62, -28, -11, 47, 112, 23,
    -42, 55, 32, 51, -29, -42, 7, -44, 26, -67, 42, 57, -41, -22, 46, 113,
    81, 35, 31, 74, -48, -83, 54, -25, -46, 41, 59, -23, 122, -53, 67, -2,
    58, 73, -35, -4, 54, 69, -127, -20, -29, -8, 64, 51, -7, -61, -17, -98,
    17, 27, -82, -53, 78, -74, -39, 42, -22, -38, -10, 48, -106, -33, 92, 2,
    -13, -93, -61, -59, 14, -35, 35, 58, 45, 20, 13, 54, 5, 31, -84, 44,
    -69, -12, -8, -7, 4, -65, 47, -9, -23, -61, 9, -4, -2, -84, -1, -56,
    40, -3, -91, 97, 84, 50, -12, -37, -7, 84, 26, 62, 58, -5, 67, 39,
    -17, -37, -19, 63, 3, 24, -1, 15, 8, -62, -4, 60, -40, 81, -15, 36,
    -70, -127, -28, -53, -29, 23, 26, -27, -50, -45, -37, -15, 27, 20, -4, 35,
    48, 34, -12, 32, 99, -49, 38, -40, 40, -95, 78, -20, 0, 56, -46, 12,
    -32, -1, -31, 10, -106, 18, 29, 53, 38, -52, 5, 14, 53, -22, -127, 9,
    28, -12, -44, -14, 93, 69, -13, 52, -68, -50, 41, -23, -28, 56, -23, -1,
    -1, 53, 68, 11, 37, 39, -33, -81, 25, 84, -35, -40, -58, 50, 29, -7,
    85, 67, -31, 31, -49, -88, 16, 60, 118, 79, -46, -79, -68, 35, 0, -47,
    45, -12, -106, 70, 18, 50, 39, 104, -23, 127, 55, -48, 13, 38, -65, -4,
    15, 61, -31, 26, 107, 18, 24, -1, 6, 43, -51, 20, -70, 49, 111, 43,
    -6, -31, -17, 31, 5, 15, -10, 52, -19, -41, -55, -54, 30, -27, -115, -7,
    50, 36, -24, 6, 24, 49, -19, 21, -16, -127, -53, 52, -7, 16, 90, 39,
    26, 4, -51, 25, -80, 57, 47, -56, -3, -12, -40, 93, -63, -8, 12, -26,
    29, 27, -62, 0, 62, 8, -30, -23, -32, -46, 46, -45, 5, 2, 43, 13,
    11, -54, 79, 4, -60, -4, -57, -55, 6, -15, 38, -53, -61, 23, -55, 1,
    -71, 9, -10, 74, 22, 14, 24, 10, 10, -3, 75, 109, 120, 16, 82, 22,
    67, 22, 4, -21, 10, -35, 104, -52, -7, -81, 95, 19, 29, 1, 54, 44,
    16, 40, -90, -23, 97, -72, -47, -60, -77, -65, 21, -25, -18, -38, -9, -127,
    -15, 15, -56, -35, -99, 20, 35, -52, 70, 4, 15, 45, 118, -22, 26, 31,
    60, -38, 25, 71, 52, -59, -23, 1, 23, -25, -12, -72, -3, -56, -30, 8,
    -67, 24, -22, -30, -4, -4, 2, -15, -58, 40, 79, -81, 31, 51, -35, -49,
    -9, -23, -43, -40, 44, -69, 16, -1, -56, -10, -25, 12, 66, 47, 28, -59,
    -25, 9, 20, 43, -41, 2, -127, -1, 13, -11, 29, -43, 13, -8, -9, 12,
    -47, -75, -51, 28, -6, -72, 74, 90, -19, 31, -28, 6, -23, 40, 108, -69,
    -88, -9, 78, 13, -37, -56, 18, -9, -57, 127, -50, 55, 50, -54, -108, -6,
    15, 42, 46, 58, -7, -34, 44, 123, 56, 12, 93, -15, 62, -3, 4, 63,
    35, 110, -96, 70, -27, -65, 0, -45, 60, 19, -47, -17, -44, 103, 5, 26,
    47, -5, -70, 28, -9, -61, 27, 19, -21, 37, -9, -64, 4, -18, 57, -64,
    26, 51, -61, 34, 44, 97, -37, -45, 85, -5, 30, -26, 100, 49, -102, -18,
    -36, 66, 9, -25, -70, -64, -100, 59, 14, -6, 127, -94, -41, 28, -14, 17,
    70, 7, -34, 33, 37, -103, 0, 3, -85, -45, -22, 24, 57, 3, 59, 39,
    46, -6, -6, 46, 39, 2, -47, 75, -117, 56, -20, 39, -60, -100, 83, 20,
    68, -40, 44, -24, -27, 101, 35, -11, 38, 39, -38, -55, -106, -4, 10, 42,
    60, 50, -60, 29, -85, -24, -73, 21, 46, -67, 127, -83, -31, -29, 35, 72,
    -27, 36, 40, 107, 6, 55, 87, 10, -44, -28, -76, 47, 52, 37, 78, 86,
    25, 31, 52, -29, 48, -47, 56, 60, -42, -22, 29, -48, -35, 78, -25, -18,
    12, 43, -21, 74, 26, 7, -7, -127, -39, 5, 45, -6, -1, -27, -43, 16,
    -28, -1, -65, 44, -2, 11, 49, -27, -12, -7, -25, -32, -6, 89, 39, -11,
    -49, -74, 21, 3, -15, 106, 37, -18, -72, 7, -43, -18, -22, 19, -45, -64,
    -11, 46, 28, -73, -23, 18, -39, -53, -19, -127, 53, -48, -59, -20, 86, 15,
    -6, 34, 91, -72, 26, 117, 26, -127, -74, 18, 74, 109, -5, 16, -88, 65,
    59, 55, 4, 74, -40, -26, -66, 3, -20, -72, -122, 109, -42, -15, 9, -52,
    -6, -93, 15, -17, -4, 31, -48, 38, 45, 24, 11, -34, 87, -26, 89, -1,
    21, -14, 44, 19, 34, -6, -17, 52, 27, 27, -61, -21, 14, 63, 63, 35,
    43, 25, -14, -23, 23, -13, 24, -59, -34, 9, 21, 0, -10, -31, -62, 9,
    15, -27, -66, 40, -9, -3, 84, -7, -22, -51, 55, -52, -27, -59, -5, -16,
    53, 26, 12, 127, 11, 76, 33, -24, 2, -28, 6, 35, 37, 35, 82, -48,
    12, 57, 98, -70, -66, -5, 26, 16, -24, -36, 5, 127, -126, 80, 57, -16,
    15, -20, 38, -38, -66, 10, 40, -22, 12, 23, 47, -24, -42, -55, 42, 39,
    -44, -54, 50, 57, -35, -21, -118, 18, -40, 43, -23, -5, -31, 63, 8, 66,
    41, 6, -47, 46, -103, 24, 3, -70, -48, -33, 54, 11, -6, 10, 11, 86,
    -59, 40, 42, -45, -50, -54, 9, 0, -72, -48, -72, 119, -24, 89, 110, 59,
    29, 14, 64, 32, 0, 59, 16, -67, -17, 14, -99, 40, 82, 0, 14, 59,
    -90, -13, -22, 80, -2, -74, -24, -1, 16, -1, 10, -9, -3, -110, -92, 48,
    23, -27, -1, 26, -78, -5, 12, 30, 23, -65, -26, 127, 54, 72, 9, 34,
    -60, -67, -31, -70, -2, 72, -9, -36, -51, -72, -34, 52, -4, -54, 44, 1,
    26, -37, 74, -24, 5, 43, 68, -17, 2, -83, 31, 58, 103, 13, 0, 107,
    -70, 37, -9, 102, -26, -10, 12, 20, -14, -18, -27, 80, -50, -28, -65, -39,
    -115, -54, 54, 38, 23, 44, -12, 0, 46, -22, -70, -79, 97, 50, 61, -127,
    24, 61, 68, 26, 51, 94, 3, -104, 8, -8, -25, 73, -82, 7, -4, 26,
    -49, -15, -32, 52, 15, 25, 127, 46, 22, 37, 31, 13, -75, 10, 97, 57,
    5, -5, -64, -8, -23, -30, -23, 8, 32, 1, -29, -58, -38, -18, -37, -51,
    9, -18, -1, 5, 8, -46, 30, -49, -47, -82, -8, -95, 8, -35, -34, 16,
    91, 26, 83, -42, 83, -69, -26, -37, 96, -4, -56, -3, 9, 2, -24, 58,
    -34, -61, -19, 9, 8, -66, 43, 59, 67, -32, 30, -43, 16, 14, 68, -7,
    -13, -6, -51, 5, 12, 18, -27, 80, -29, -75, 28, -28, -11, -16, 45, 3,
    -22, 110, 55, -44, -83, -74, -85, -65, -23, -107, -33, 66, 64, 12, 45, 127,
    95, 67, -20, -45, 55, -22, -12, 56, 19, -67, 61, -35, 81, 77, 0, 5,
    -70, 19, -16, -34, 1, -51, 7, -72, -43, -9, 40, -58, 77, 9, -12, -117,
    -53, 54, -52, -71, 46, 109, 61, -42, -127, 20, 16, 10, 77, -24, 113, 7,
    12, -46, 106, 29, 77, 64, 17, 7, -64, -20, 20, -27, -57, 20, 51, 7,
    -17, 30, 1, -19, -92, 48, 12, 33, 44, -46, -53, 34, -74, -34, 41, -29,
    127, 22, 33, 38, -21, -8, 12, -44, -48, -64, 44, 27, 53, 34, 30, -42,
    31, 86, 61, 26, 66, -71, 80, 85, 27, 2, -16, 87, -22, -49, -57, 29,
    -2, -49, -7, 77, -23, -63, 8, 37, -64, -58, -88, -58, 16, 63, 112, -9,
    -16, 88, 23, 52, -8, -89, 47, 50, 31, 56, 96, -1, 56, 9, -24, -58,
    70, 11, -99, 62, -69, 45, -5, -35, 106, -49, 43, -10, 30, 124, -67, -11,
    -60, 60, -80, 5, 13, -127, -19, 39, -30, -106, 4, 2, -25, -50, 17, -14,
    77, 2, 42, -57, 80, 47, -13, 74, 60, -29, -27, 50, 43, -12, -10, 26,
    58, -99, -41, 127, -18, 55, 80, -48, -75, 40, -86, 43, 26, 1, -18, -24,
    77, -88, 1, -54, -45, 11, -31, -89, 52, 1, 6, -45, 45, 36, 28, 20,
    62, 45, -108, 3, -118, 34, -50, 35, 55, -73, -84, -71, 20, -86, 79, -3,
    108, 34, -60, 19, -42, -78, -1, 10, -39, -28, -88, 112, 62, 3, -1, 47,
    104, 21, -10, 72, 44, -127, 38, 3, 20, -8, -38, 55, -68, 53, 13, -76,
    30, -62, 47, 49, -118, 126, -56, 0, -40, 19, 7, -42, 4, -14, -101, -12,
    24, 113, -32, 2, -50, -74, -3, -26, -24, -75, -22, 50, 31, -11, 20, 9,
    58, -1, 67, 67, -63, 35, -62, -68, -16, 24, -91, -20, 6, 22, 11, -48,
    45, -28, 36, -17, 119, 5, -50, -66, -127, 49, 123, -1, 79, -85, -18, 4,
    -20, 79, -35, -38, 121, -120, 36, 94, -94, -18, -10, 32, -5, -24, 34, -11,
    -9, 100, -83, -56, -46, 85, 11, -76, -36, 43, 29, 14, -43, -83, 4, -27,
    8, -19, 7, -54, 63, 20, 14, -10, 105, 8, -82, -105, -4, 36, 14, 67,
    8, -38, -33, -71, -59, 16, 1, -7, -33, -41, -127, 119, -70, -14, -5, 64,
    27, -5, 113, -40, 5, 16, 39, -24, -66, 44, 22, -85, 68, -22, 52, -105,
    72, -15, 69, 1, -5, 18, 55, -33, -42, 34, -57, 36, 70, 1, -102, 41,
    6, 80, 38, 29, -21, -10, 66, 45, -38, -41, -106, 19, 33, 58, -18, -20,
    5, 20, -44, 30, 50, -3, -31, 23, 7, 43, 5, -69, 15, 44, -77, 8,
    -11, 16, -89, -43, -17, -73, -37, -2, 9, -43, -82, 6, 110, 39, -7, -10,
    -127, -7, 8, 71, 0, 39, -22, -56, 49, 56, 17, 44, 43, 2, 53, 79,
    9, 24, -10, -21, 43, 44, -2, 72, 13, 7, -15, 21, -10, -87, 33, -25,
    -53, -4, -61, -1, 71, -58, 120, 101, 90, -23, 50, -25, -104, -47, 4, -21,
    -29, 69, 64, 59, -2, -99, 20, -16, 17, 24, -43, 15, 43, -60, -93, -21,
    80, -29, 50, -44, -22, -92, -55, 20, 34, -27, -60, -51, 15, 34, -66, 5,
    73, -55, -42, -21, -103, -7, 65, 23, 50, 8, 127, 37, 2, -36, 60, -63,
    20, 3, 31, -32, -71, -32, -14, -47, -40, -89, 6, 31, 29, -73, -37, -37,
    29, -13, 2, 39, 20, 22, -26, 1, -3, -25, -94, 53, 102, 47, -51, -127,
    30, 8, -34, -57, 17, 86, 6, 13, -62, -15, -26, 82, 54, 64, -30, -72,
    48, -12, 113, 9, 9, 72, 0, 42, 96, -16, -22, -10, 93, -81, -16, -47,
    -44, -35, 49, -127, 38, -58, -4, 56, -34, 15, 14, -21, -97, 49, 56, 27,
    -80, 100, 14, -74, 105, 19, -8, -104, 24, -37, 22, 39, -51, -51, -26, -82,
    10, 57, 40, -93, -31, 30, 70, -42, -45, 54, -13, 30, 20, 73, 94, 37,
    34, 36, 0, -3, 49, 48, 77, 33, -54, 6, 13, 51, -68, 52, -19, -64,
    58, -4, 127, 3, 42, 36, 21, -25, -5, -96, 62, -73, 83, 38, -25, 55,
    14, -65, 7, -26, 86, -55, -28, -13, 44, -31, 34, 42, 92, 35, -7, -64,
    -42, 18, -76, 34, -96, 18, -87, -44, 19, -49, 34, -4, 24, -86, -9, 11,
    26, 7, 63, -9, 51, 3, -56, -24, 44, 25, 20, -84, 6, -56, -70, -39,
    26, 37, 104, 44, -80, -127, 98, -10, 75, -42, 95, -112, -28, 15, -7, 46,
    -3, -101, -117, 50, -30, -32, 51, 10, 10, -115, -103, 120, -1, 51, -74, 60,
    -22, 7, -54, 40, 6, 126, -34, -98, -37, -19, 45, 64, 26, -3, -96, -58,
    49, -22, -4, -46, 37, 43, -29, -35, 40, 73, -5, -71, 92, 61, -13, -53,
    -127, 1, 11, 20, -56, 0, 0, -23, -92, 21, -12, 120, 1, -14, -12, 26,
    56, 10, 12, -31, 60, 25, -15, -10, -18, -52, -31, -20, 78, -31, 101, 63,
    34, -34, 19, -69, 26, -51, -63, 8, -58, 33, -19, 56, -5, -1, -38, 6,
    34, 59, 39, 33, -55, 16, 85, 29, 32, 43, -68, -14, 34, -59, 78, -3,
    21, 52, -77, -127, -22, 12, -31, -18, 27, 3, -37, 24, -26, -13, -27, 43,
    34, 53, 93, 62, -31, -48, 18, -16, -36, -53, -59, 1, -25, 23, 24, -76,
    53, 53, 40, 74, -17, -56, 0, 19, -28, 50, 55, 106, 30, 20, -5, -12,
    -41, 31, 32, -41, 8, 20, 120, 73, 12, -5, -118, 67, 45, 7, 50, 34,
    16, -15, 37, 3, -30, -15, 34, 34, -44, -18, 124, -127, -23, -12, 20, 18,
    -49, -52, -63, -14, 45, 12, 50, 69, 93, -45, -112, -4, 99, 16, 16, 15,
    33, -1, -12, -17, 47, -39, 12, -31, -87, -36, -34, 82, 51, 60, -43, -31,
    13, 45, -88, 1, 36, -59, 27, 33, 38, 67, 30, 17, 29, -71, 6, -50,
    22, -65, 25, 24, 105, -17, -112, -13, -3, -76, -5, 86, 36, 66, 16, 5,
    72, 30, -11, -80, 60, -4, 68, -37, 1, -50, -15, 2, 39, -18, 20, -23,
    -33, 17, -33, -39, -23, -104, 71, -70, -45, 86, 19, 58, 84, 31, -10, -8,
    75, -34, -18, -127, 48, 12, 61, 22, -24, 14, -36, 14, -66, 11, -96, -7,
    -34, -120, -14, 51, -23, 53, -58, -36, -127, 34, 47, 64, 78, -55, -30, 23,
    -21, 15, -58, -81, 24, -91, 87, 108, -36, 40, 9, 116, 37, -69, -78, 28,
    71, 124, 35, 79, 26, 67, -33, -37, -74, 10, -74, -50, -9, -44, -58, 89,
    -64, 106, 73, -14, -12, 0, 92, -16, 61, -79, -58, -70, 21, -47, 0, 46,
    -11, -39, -51, -68, 21, -30, -5, 80, -123, -61, -45, 98, -44, -40, -20, 7,
    34, 94, 127, -87, -114, -12, 30, 18, -56, -83, -86, -60, 76, -59, 24, 1,
    76, 125, 41, -19, -18, 48, 18, 13, -59, 42, 19, 63, 60, -77, -64, 18,
    -27, 86, 55, -15, -46, 0, 6, 34, 71, -30, -19, 4, 47, 36, -12, 13,
    -51, -49, -15, 58, -26, -75, 0, 0, -31, 24, 103, -89, -89, 18, 13, 2,
    -63, -54, -82, -50, 88, 36, -9, -12, -15, -13, -2, 48, -1, -126, -13, 85,
    32, -22, -25, 60, -48, 9, -79, 30, -30, -1, -15, 20, -18, 127, -17, -51,
    20, 12, 24, 25, -13, 7, 88, -18, -46, -65, 55, -29, -72, 1, 28, 94,
    59, 18, 21, 17, 54, 4, -12, -20, 56, -23, -7, -14, -9, 14, -32, -14,
    -61, 80, -61, -1, -20, -26, 115, -26, -103, 1, -7, -51, 26, -36, 45, 21,
    96, -66, -127, -44, -25, 77, -14, -77, -57, 55, 4, -31, 40, 35, 10, -24,
    18, -13, 3, 18, 93, -76, 23, -28, 22, -32, -51, 41, -38, -8, 53, -27,
    48, -44, 65, 113, 37, -44, -52, 40, 78, -16, -83, 43, 48, 23, 38, -101,
    0, -104, -8, -18, 29, 60, 32, -25, -8, 71, 74, 18, 38, 6, -13, -16,
    7, 76, -21, -6, -23, -60, -5, -44, 83, -20, -6, -21, -28, 68, -3, -53,
    2, 12, -34, 33, -127, 11, -13, 19, 36, -42, -26, -35, 108, -29, -97, -39,
    -62, -41, 47, 82, 32, -4, -41, -24, -11, 69, 5, -24, 127, 8, 22, 19,
    1, 37, -20, -62, 40, -1, 41, -61, -62, 38, -84, 16, 34, -38, 6, -6,
    8, 20, 53, 66, 20, 38, 44, -72, 42, 19, 70, 2, -5, -43, 15, 13,
    8, -73, -57, 57, 23, 18, 14, 74, 36, 2, 5, 73, 60, 53, 12, 5,
    24, -49, -69, 13, 31, -30, 51, 80, -21, 40, 75, -44, -19, -35, -28, -76,
    -56, 25, -10, -63, 8, -80, -17, -13, 23, 23, -19, -5, 37, -30, -127, -10,
    12, 43, 34, -59, 20, 11, -49, 57, 58, 64, 29, -40, 101, 74, 88, 116,
    -64, 105, -6, 11, 73, 3, -3, -9, -41, 77, -40, -16, -50, 65, -85, 27,
    62, -10, -122, 2, -14, 59, -15, 65, -105, -22, -92, 106, -74, -55, 68, -40,
    -55, -4, 55, -16, -100, -76, 60, -12, -18, 66, 75, 61, 31, -45, -55, 20,
    -77, -54, -56, 101, 14, 88, 44, -57, -46, 54, -25, -15, 84, 50, -59, 3,
    -39, 75, -40, 53, -35, -50, 80, -13, -67, 10, -81, -87, 68, 127, 21, 8,
    57, -30, -29, -16, 74, 2, 2, -42, -43, -29, 127, -7, -44, 16, 33, 0,
    -49, 64, -46, -43, -23, 78, 7, 58, 57, -57, -24, -1, 10, -66, -30, 68,
